{"learner":{"attributes":{"scikit_learn":"{\"_estimator_type\": \"classifier\"}"},"feature_names":["open","high","low","close","volume","RSI","EMA_Fast","EMA_Slow","ATR"],"feature_types":["float","float","float","float","float","float","float","float","float"],"gradient_booster":{"model":{"cats":{"enc":[],"feature_segments":[],"sorted_idx":[]},"gbtree_model_param":{"num_parallel_tree":"1","num_trees":"200"},"iteration_indptr":[0,1,2,3,4,5,6,7,8,9,10,11,12,13,14,15,16,17,18,19,20,21,22,23,24,25,26,27,28,29,30,31,32,33,34,35,36,37,38,39,40,41,42,43,44,45,46,47,48,49,50,51,52,53,54,55,56,57,58,59,60,61,62,63,64,65,66,67,68,69,70,71,72,73,74,75,76,77,78,79,80,81,82,83,84,85,86,87,88,89,90,91,92,93,94,95,96,97,98,99,100,101,102,103,104,105,106,107,108,109,110,111,112,113,114,115,116,117,118,119,120,121,122,123,124,125,126,127,128,129,130,131,132,133,134,135,136,137,138,139,140,141,142,143,144,145,146,147,148,149,150,151,152,153,154,155,156,157,158,159,160,161,162,163,164,165,166,167,168,169,170,171,172,173,174,175,176,177,178,179,180,181,182,183,184,185,186,187,188,189,190,191,192,193,194,195,196,197,198,199,200],"tree_info":[0,0,0,0,0,0,0,0,0,0,0,0,0,0,0,0,0,0,0,0,0,0,0,0,0,0,0,0,0,0,0,0,0,0,0,0,0,0,0,0,0,0,0,0,0,0,0,0,0,0,0,0,0,0,0,0,0,0,0,0,0,0,0,0,0,0,0,0,0,0,0,0,0,0,0,0,0,0,0,0,0,0,0,0,0,0,0,0,0,0,0,0,0,0,0,0,0,0,0,0,0,0,0,0,0,0,0,0,0,0,0,0,0,0,0,0,0,0,0,0,0,0,0,0,0,0,0,0,0,0,0,0,0,0,0,0,0,0,0,0,0,0,0,0,0,0,0,0,0,0,0,0,0,0,0,0,0,0,0,0,0,0,0,0,0,0,0,0,0,0,0,0,0,0,0,0,0,0,0,0,0,0,0,0,0,0,0,0,0,0,0,0,0,0,0,0,0,0,0,0],"trees":[{"base_weights":[6.608838E-8,1.076248E0,-5.084429E-1,1.6270106E-1,7.5065017E-1,-9.630435E-1,2.6211995E-1,4.5803103E-1,1.6116259E-1,-1.9063205E-1,-1.0447062E0,2.7017622E0,-2.943907E-1,1.251984E0,-7.3848575E-1,3.397746E-2,-4.2566795E-2,-1.2910214E-2,-5.334223E-2,1.8448886E-1,3.397746E-2,1.2561526E0,-7.300324E-1,1.565945E-1,4.356397E-1,-5.770801E-2,-5.2601248E-2,2.1514368E0,-3.4518562E-2,5.9504516E-2,-9.480466E-1,9.2075326E-2,-1.8796356E-2,-4.173277E-2,5.1914822E-2,1.5440989E-1,-5.9960335E-3,-5.9960335E-3,-4.98691E-2],"categories":[],"categories_nodes":[],"categories_segments":[],"categories_sizes":[],"default_left":[0,0,0,0,0,0,0,0,0,0,0,0,0,0,0,0,0,0,0,0,0,0,0,0,0,0,0,0,0,0,0,0,0,0,0,0,0,0,0],"id":0,"left_children":[1,3,5,-1,7,9,11,13,-1,15,17,19,21,23,25,-1,-1,-1,-1,-1,-1,27,29,-1,31,33,-1,35,-1,-1,37,-1,-1,-1,-1,-1,-1,-1,-1],"loss_changes":[5.1503708E1,1.897028E1,2.2644274E1,0E0,1.8471676E1,2.350277E0,3.4064926E1,2.5451584E1,0E0,3.503637E0,3.5710144E-1,6.7827644E0,1.5004063E1,2.3022915E1,2.2717485E0,0E0,0E0,0E0,0E0,0E0,0E0,1.00972595E1,8.208296E0,0E0,1.4659066E1,4.701766E0,0E0,8.089365E0,0E0,0E0,5.23674E-1,0E0,0E0,0E0,0E0,0E0,0E0,0E0,0E0],"parents":[2147483647,0,0,1,1,2,2,4,4,5,5,6,6,7,7,9,9,10,10,11,11,12,12,13,13,14,14,21,21,22,22,24,24,25,25,27,27,30,30],"right_children":[2,4,6,-1,8,10,12,14,-1,16,18,20,22,24,26,-1,-1,-1,-1,-1,-1,28,30,-1,32,34,-1,36,-1,-1,38,-1,-1,-1,-1,-1,-1,-1,-1],"split_conditions":[9.008991E4,8.885782E4,1.0452279E5,1.6270106E-1,9.593893E4,3.2888638E1,1.02250734E5,8.721133E4,1.6116259E-1,9.455849E4,9.056008E4,1.0509148E5,3.9500076E1,8.96569E4,8.767423E4,3.397746E-2,-4.2566795E-2,-1.2910214E-2,-5.334223E-2,1.8448886E-1,3.397746E-2,1.0311265E5,1.047289E5,1.565945E-1,8.574491E4,8.67466E4,-5.2601248E-2,7.716279E2,-3.4518562E-2,5.9504516E-2,1.0172491E5,9.2075326E-2,-1.8796356E-2,-4.173277E-2,5.1914822E-2,1.5440989E-1,-5.9960335E-3,-5.9960335E-3,-4.98691E-2],"split_indices":[2,7,7,0,7,5,6,1,0,2,0,7,5,7,1,0,0,0,0,0,0,0,7,0,6,2,0,8,0,0,3,0,0,0,0,0,0,0,0],"split_type":[0,0,0,0,0,0,0,0,0,0,0,0,0,0,0,0,0,0,0,0,0,0,0,0,0,0,0,0,0,0,0,0,0,0,0,0,0,0,0],"sum_hessian":[9.2120445E1,2.9198238E1,6.2922203E1,2.6278415E0,2.6570396E1,3.941762E1,2.3504581E1,2.4818502E1,1.7518942E0,4.0877533E0,3.532987E1,3.6497798E0,1.9854801E1,1.4891102E1,9.927401E0,1.7518942E0,2.335859E0,1.3139207E0,3.401595E1,1.8978854E0,1.7518942E0,3.9417622E0,1.591304E1,3.6497798E0,1.1241322E1,3.5037885E0,6.4236126E0,2.6278415E0,1.3139207E0,1.1679295E0,1.47451105E1,3.6497798E0,7.591542E0,2.189868E0,1.3139207E0,1.6059031E0,1.0219383E0,1.0219383E0,1.3723172E1],"tree_param":{"num_deleted":"0","num_feature":"9","num_nodes":"39","size_leaf_vector":"1"}},{"base_weights":[6.5494096E-3,1.0120144E0,-4.8939368E-1,1.4531644E-1,7.117963E-1,-9.4564545E-1,2.6083034E-1,4.3599665E-1,1.4598666E-1,-1.8410173E-1,-1.0284104E0,2.467153E0,-2.7884936E-1,1.1647184E0,-7.214516E-1,3.4157153E-2,-4.2361364E-2,-5.36271E-2,-4.7450733E-1,1.650525E-1,3.2430183E-2,1.1829593E0,-7.1077245E-1,1.703393E0,-4.554976E-2,-5.325998E-2,-5.187877E-2,1.0244116E-2,-4.089379E-2,1.9945512E0,-3.3977486E-2,5.6692403E-2,-9.3109393E-1,1.1612481E-1,1.09807225E-2,-4.1584577E-2,5.1896375E-2,1.4067815E-1,-5.856242E-3,-5.856242E-3,-4.9045198E-2],"categories":[],"categories_nodes":[],"categories_segments":[],"categories_sizes":[],"default_left":[0,0,0,0,0,0,0,0,0,0,0,0,0,0,0,0,0,0,0,0,0,0,0,0,0,0,0,0,0,0,0,0,0,0,0,0,0,0,0,0,0],"id":1,"left_children":[1,3,5,-1,7,9,11,13,-1,15,17,19,21,23,25,-1,-1,-1,27,-1,-1,29,31,33,-1,35,-1,-1,-1,37,-1,-1,39,-1,-1,-1,-1,-1,-1,-1,-1],"loss_changes":[4.6695465E1,1.5521378E1,2.1715134E1,0E0,1.5791558E1,2.282505E0,2.9863342E1,2.2843401E1,0E0,3.4901307E0,3.504219E-1,5.3156357E0,1.383824E1,1.9878735E1,2.2040973E0,0E0,0E0,0E0,1.1911302E0,0E0,0E0,9.019899E0,7.7675657E0,1.1764397E1,0E0,4.676507E0,0E0,0E0,0E0,6.876853E0,0E0,0E0,5.055132E-1,0E0,0E0,0E0,0E0,0E0,0E0,0E0,0E0],"parents":[2147483647,0,0,1,1,2,2,4,4,5,5,6,6,7,7,9,9,10,10,11,11,12,12,13,13,14,14,18,18,21,21,22,22,23,23,25,25,29,29,32,32],"right_children":[2,4,6,-1,8,10,12,14,-1,16,18,20,22,24,26,-1,-1,-1,28,-1,-1,30,32,34,-1,36,-1,-1,-1,38,-1,-1,40,-1,-1,-1,-1,-1,-1,-1,-1],"split_conditions":[9.008991E4,8.885782E4,1.0452279E5,1.4531644E-1,9.593893E4,3.2888638E1,1.02250734E5,8.721133E4,1.4598666E-1,1.956886E3,1.7314012E3,1.0509148E5,3.9500076E1,8.883407E4,8.767423E4,3.4157153E-2,-4.2361364E-2,-5.36271E-2,2.2328105E3,1.650525E-1,3.2430183E-2,1.0311265E5,1.047289E5,9.147209E4,-4.554976E-2,5.079471E1,-5.187877E-2,1.0244116E-2,-4.089379E-2,7.716279E2,-3.3977486E-2,5.6692403E-2,1.0172491E5,1.1612481E-1,1.09807225E-2,-4.1584577E-2,5.1896375E-2,1.4067815E-1,-5.856242E-3,-5.856242E-3,-4.9045198E-2],"split_indices":[2,7,7,0,7,5,6,1,0,4,4,7,5,6,1,0,0,0,4,0,0,0,7,7,0,5,0,0,0,8,0,0,3,0,0,0,0,0,0,0,0],"split_type":[0,0,0,0,0,0,0,0,0,0,0,0,0,0,0,0,0,0,0,0,0,0,0,0,0,0,0,0,0,0,0,0,0,0,0,0,0,0,0,0,0],"sum_hessian":[9.164991E1,2.9929947E1,6.171996E1,2.906953E0,2.7022995E1,3.8217403E1,2.3502554E1,2.50868E1,1.9361949E0,4.062411E0,3.4154995E1,3.9171045E0,1.958545E1,1.539066E1,9.696139E0,1.7472051E0,2.3152058E0,3.0767315E1,3.3876784E0,2.126696E0,1.7904084E0,4.070466E0,1.5514983E1,1.2361945E1,3.0287147E0,3.4892926E0,6.206847E0,1.2727427E0,2.1149356E0,2.785698E0,1.2847679E0,1.2129917E0,1.4301991E1,8.323659E0,4.038286E0,2.1752925E0,1.314E0,1.7677097E0,1.0179883E0,1.0179883E0,1.3284003E1],"tree_param":{"num_deleted":"0","num_feature":"9","num_nodes":"41","size_leaf_vector":"1"}},{"base_weights":[1.0498783E-2,9.4749856E-1,-4.716654E-1,2.3401019E-1,1.565264E0,-9.288904E-1,2.5869006E-1,1.4046311E0,-7.5914305E-1,2.377037E0,3.3280462E-1,-1.7777905E-1,-1.0127996E0,2.2683158E0,-2.6450735E-1,2.4508133E0,-4.1609064E-2,-1.327305E-1,-5.0671514E-2,2.5617049E0,1.8978044E-2,-4.953375E-2,1.3331808E-1,3.260012E-2,-4.1699022E-2,-1.1507266E-2,-5.1798433E-2,1.4933087E-1,3.096882E-2,1.1159116E0,-6.920775E-1,3.5740044E-2,1.5106043E-1,2.9060444E-2,-3.6955122E-2,1.371065E-1,3.5805777E-2,1.8565961E0,-3.3449754E-2,5.4053497E-2,-9.145659E-1,1.2905912E-1,-5.7197325E-3,-5.7197325E-3,-4.8243586E-2],"categories":[],"categories_nodes":[],"categories_segments":[],"categories_sizes":[],"default_left":[0,0,0,0,0,0,0,0,0,0,0,0,0,0,0,0,0,0,0,0,0,0,0,0,0,0,0,0,0,0,0,0,0,0,0,0,0,0,0,0,0,0,0,0,0],"id":2,"left_children":[1,3,5,7,9,11,13,15,17,19,21,23,25,27,29,31,-1,33,-1,35,-1,-1,-1,-1,-1,-1,-1,-1,-1,37,39,-1,-1,-1,-1,-1,-1,41,-1,-1,43,-1,-1,-1,-1],"loss_changes":[4.209811E1,1.3586147E1,2.078983E1,1.9511198E1,1.60066E1,2.2188644E0,2.6333052E1,1.9901123E1,1.3360925E0,2.7014809E0,2.6823944E1,3.2868297E0,3.7856674E-1,4.2618732E0,1.2762332E1,3.2410126E0,0E0,2.0817363E0,0E0,1.0141907E0,0E0,0E0,0E0,0E0,0E0,0E0,0E0,0E0,0E0,8.099417E0,7.351045E0,0E0,0E0,0E0,0E0,0E0,0E0,5.9088E0,0E0,0E0,4.8823547E-1,0E0,0E0,0E0,0E0],"parents":[2147483647,0,0,1,1,2,2,3,3,4,4,5,5,6,6,7,7,8,8,9,9,10,10,11,11,12,12,13,13,14,14,15,15,17,17,19,19,29,29,30,30,37,37,40,40],"right_children":[2,4,6,8,10,12,14,16,18,20,22,24,26,28,30,32,-1,34,-1,36,-1,-1,-1,-1,-1,-1,-1,-1,-1,38,40,-1,-1,-1,-1,-1,-1,42,-1,-1,44,-1,-1,-1,-1],"split_conditions":[9.008991E4,8.723531E4,1.0452279E5,8.628601E4,8.883407E4,3.2888638E1,1.02250734E5,9.7732983E2,8.6978E4,1.3218427E3,9.593893E4,1.956886E3,9.056008E4,1.0509148E5,3.9500076E1,8.552192E4,-4.1609064E-2,8.0311554E2,-5.0671514E-2,8.8E4,1.8978044E-2,-4.953375E-2,1.3331808E-1,3.260012E-2,-4.1699022E-2,-1.1507266E-2,-5.1798433E-2,1.4933087E-1,3.096882E-2,1.0311265E5,1.047289E5,3.5740044E-2,1.5106043E-1,2.9060444E-2,-3.6955122E-2,1.371065E-1,3.5805777E-2,7.716279E2,-3.3449754E-2,5.4053497E-2,1.0172491E5,1.2905912E-1,-5.7197325E-3,-5.7197325E-3,-4.8243586E-2],"split_indices":[2,6,7,3,6,5,6,8,3,8,7,4,0,7,5,6,0,4,0,1,0,0,0,0,0,0,0,0,0,0,7,0,0,0,0,0,0,8,0,0,3,0,0,0,0],"split_type":[0,0,0,0,0,0,0,0,0,0,0,0,0,0,0,0,0,0,0,0,0,0,0,0,0,0,0,0,0,0,0,0,0,0,0,0,0,0,0,0,0,0,0,0,0],"sum_hessian":[9.1191986E1,3.0654793E1,6.0537197E1,1.4865119E1,1.5789674E1,3.7062866E1,2.3474329E1,6.6327915E0,8.232327E0,8.959623E0,6.8300505E0,4.0377474E0,3.302512E1,4.1600184E0,1.931431E1,4.4539547E0,2.1788368E0,2.8163884E0,5.415939E0,7.942833E0,1.0167905E0,4.725464E0,2.1045866E0,1.7858716E0,2.2518759E0,1.2638931E0,3.1761227E1,2.3326476E0,1.8273706E0,4.186907E0,1.5127404E1,1.6587311E0,2.7952235E0,1.3125252E0,1.5038632E0,6.792977E0,1.149856E0,2.9306202E0,1.2562865E0,1.2562861E0,1.3871119E1,1.9164852E0,1.0141349E0,1.0141349E0,1.2856983E1],"tree_param":{"num_deleted":"0","num_feature":"9","num_nodes":"45","size_leaf_vector":"1"}},{"base_weights":[1.46006355E-2,8.923732E-1,-4.5472825E-1,1.2680216E-1,6.391847E-1,-9.1236925E-1,2.5596765E-1,3.9700496E-1,1.2263949E-1,-1.7191224E-1,-9.974279E-1,2.098542E0,-2.5123745E-1,1.0053095E0,-6.243742E-1,3.275805E-2,-4.1520897E-2,-5.218743E-2,-4.3640494E-1,1.3643785E-1,2.9587353E-2,1.054634E0,-6.7390925E-1,1.4369857E0,-4.41142E-2,-9.2368215E-1,1.8790372E-1,1.1420547E-2,-3.9463293E-2,1.734979E0,-3.293477E-2,5.157525E-2,-8.984181E-1,9.544756E-2,9.80229E-3,-5.1307708E-2,-6.9585475E-3,6.1657976E-2,-3.6614746E-2,1.1915256E-1,-5.5864267E-3,-5.5864267E-3,-4.7461845E-2],"categories":[],"categories_nodes":[],"categories_segments":[],"categories_sizes":[],"default_left":[0,0,0,0,0,0,0,0,0,0,0,0,0,0,0,0,0,0,0,0,0,0,0,0,0,0,0,0,0,0,0,0,0,0,0,0,0,0,0,0,0,0,0],"id":3,"left_children":[1,3,5,-1,7,9,11,13,-1,15,17,19,21,23,25,-1,-1,-1,27,-1,-1,29,31,33,-1,35,37,-1,-1,39,-1,-1,41,-1,-1,-1,-1,-1,-1,-1,-1,-1,-1],"loss_changes":[3.813969E1,1.1799786E1,1.9860664E1,0E0,1.1887266E1,2.1542988E0,2.3347946E1,1.741874E1,0E0,3.2743702E0,3.9984512E-1,3.4919777E0,1.1772383E1,1.5381321E1,2.7760463E0,0E0,0E0,0E0,1.1723101E0,0E0,0E0,7.3095584E0,6.9572854E0,8.104872E0,0E0,4.9960566E-1,4.474615E0,0E0,0E0,5.127515E0,0E0,0E0,4.7174263E-1,0E0,0E0,0E0,0E0,0E0,0E0,0E0,0E0,0E0,0E0],"parents":[2147483647,0,0,1,1,2,2,4,4,5,5,6,6,7,7,9,9,10,10,11,11,12,12,13,13,14,14,18,18,21,21,22,22,23,23,25,25,26,26,29,29,32,32],"right_children":[2,4,6,-1,8,10,12,14,-1,16,18,20,22,24,26,-1,-1,-1,28,-1,-1,30,32,34,-1,36,38,-1,-1,40,-1,-1,42,-1,-1,-1,-1,-1,-1,-1,-1,-1,-1],"split_conditions":[9.008991E4,8.8835375E4,1.0452279E5,1.2680216E-1,9.593893E4,3.2888638E1,1.02250734E5,8.721133E4,1.2263949E-1,9.455849E4,1.7314012E3,1.0509148E5,3.9500076E1,8.883407E4,8.7287586E4,3.275805E-2,-4.1520897E-2,-5.218743E-2,2.2328105E3,1.3643785E-1,2.9587353E-2,1.0311265E5,1.047289E5,9.147209E4,-4.41142E-2,7.812817E2,8.4712177E2,1.1420547E-2,-3.9463293E-2,7.716279E2,-3.293477E-2,5.157525E-2,1.0172491E5,9.544756E-2,9.80229E-3,-5.1307708E-2,-6.9585475E-3,6.1657976E-2,-3.6614746E-2,1.1915256E-1,-5.5864267E-3,-5.5864267E-3,-4.7461845E-2],"split_indices":[2,7,7,0,7,5,6,1,0,2,4,7,5,6,6,0,0,0,4,0,0,0,7,7,0,8,4,0,0,8,0,0,3,0,0,0,0,0,0,0,0,0,0],"split_type":[0,0,0,0,0,0,0,0,0,0,0,0,0,0,0,0,0,0,0,0,0,0,0,0,0,0,0,0,0,0,0,0,0,0,0,0,0,0,0,0,0,0,0],"sum_hessian":[9.059515E1,3.1249224E1,5.934593E1,2.9675856E0,2.828164E1,3.5927338E1,2.341859E1,2.6025259E1,2.2563794E0,4.01313E0,3.1914207E1,4.3777266E0,1.9040863E1,1.6320793E1,9.704467E0,1.781133E0,2.231997E0,2.8685366E1,3.2288408E0,2.514904E0,1.8628225E0,4.2903605E0,1.4750504E1,1.3477358E1,2.843435E0,6.9912014E0,2.7132657E0,1.24183E0,1.9870108E0,3.061883E0,1.2284774E0,1.2977836E0,1.345272E1,9.373886E0,4.1034713E0,5.911084E0,1.0801169E0,1.1110828E0,1.6021829E0,2.0515075E0,1.0103756E0,1.0103756E0,1.2442344E1],"tree_param":{"num_deleted":"0","num_feature":"9","num_nodes":"43","size_leaf_vector":"1"}},{"base_weights":[1.7504599E-2,8.407452E-1,-4.3891883E-1,1.999663E-1,1.3737576E0,-8.964167E-1,2.5285164E-1,1.220177E0,-7.4205303E-1,2.0170062E0,3.080377E-1,-1.662345E-1,-9.826556E-1,1.952389E0,-2.3892786E-1,2.0904317E0,-4.110841E-2,2.9949069E-3,-9.144638E-1,1.3346563E-1,1.2874516E0,-4.8369393E-2,1.1354963E-1,3.1279832E-2,-4.0880613E-2,-1.0178017E-2,-5.034817E-2,1.2572308E-1,2.8280241E-2,9.9864125E-1,-6.562331E-1,3.0068105E-2,1.2918398E-1,-5.1226344E-2,-6.794882E-3,-3.8488653E-2,2.019304E0,1.6273534E0,-3.2431982E-2,4.9245868E-2,-8.826107E-1,1.4077799E-1,4.4811092E-2,1.1063786E-1,-5.4562553E-3,-4.680937E-2,-5.1050317E-3],"categories":[],"categories_nodes":[],"categories_segments":[],"categories_sizes":[],"default_left":[0,0,0,0,0,0,0,0,0,0,0,0,0,0,0,0,0,0,0,0,0,0,0,0,0,0,0,0,0,0,0,0,0,0,0,0,0,0,0,0,0,0,0,0,0,0,0],"id":4,"left_children":[1,3,5,7,9,11,13,15,17,19,21,23,25,27,29,31,-1,-1,33,-1,35,-1,-1,-1,-1,-1,-1,-1,-1,37,39,-1,-1,-1,-1,-1,41,43,-1,-1,45,-1,-1,-1,-1,-1,-1],"loss_changes":[3.454651E1,1.0923029E1,1.895401E1,1.6338285E1,1.15313225E1,2.0933552E0,2.080605E1,1.6092758E1,1.2951317E0,1.738594E0,2.1857273E1,3.0848122E0,3.9817238E-1,2.9198322E0,1.086289E1,2.8187714E0,0E0,0E0,4.9873924E-1,0E0,1.2191489E1,0E0,0E0,0E0,0E0,0E0,0E0,0E0,0E0,6.6281185E0,6.5849123E0,0E0,0E0,0E0,0E0,0E0,2.3836231E0,4.4899063E0,0E0,0E0,4.9181652E-1,0E0,0E0,0E0,0E0,0E0,0E0],"parents":[2147483647,0,0,1,1,2,2,3,3,4,4,5,5,6,6,7,7,8,8,9,9,10,10,11,11,12,12,13,13,14,14,15,15,18,18,20,20,29,29,30,30,36,36,37,37,40,40],"right_children":[2,4,6,8,10,12,14,16,18,20,22,24,26,28,30,32,-1,-1,34,-1,36,-1,-1,-1,-1,-1,-1,-1,-1,38,40,-1,-1,-1,-1,-1,42,44,-1,-1,46,-1,-1,-1,-1,-1,-1],"split_conditions":[9.008991E4,8.723531E4,1.0452279E5,8.628601E4,8.883407E4,3.2888638E1,1.02250734E5,9.7732983E2,5.6775555E2,6.921012E2,9.593893E4,1.956886E3,9.056008E4,1.0509148E5,3.9500076E1,8.552192E4,-4.110841E-2,2.9949069E-3,7.812817E2,1.3346563E-1,8.751678E4,-4.8369393E-2,1.1354963E-1,3.1279832E-2,-4.0880613E-2,-1.0178017E-2,-5.034817E-2,1.2572308E-1,2.8280241E-2,1.0311265E5,1.047289E5,3.0068105E-2,1.2918398E-1,-5.1226344E-2,-6.794882E-3,-3.8488653E-2,3.6148495E1,7.716279E2,-3.2431982E-2,4.9245868E-2,1.7834084E3,1.4077799E-1,4.4811092E-2,1.1063786E-1,-5.4562553E-3,-4.680937E-2,-5.1050317E-3],"split_indices":[2,6,7,3,6,5,6,8,4,8,7,4,0,7,5,6,0,0,8,0,6,0,0,0,0,0,0,0,0,0,7,0,0,0,0,0,5,8,0,0,4,0,0,0,0,0,0],"split_type":[0,0,0,0,0,0,0,0,0,0,0,0,0,0,0,0,0,0,0,0,0,0,0,0,0,0,0,0,0,0,0,0,0,0,0,0,0,0,0,0,0,0,0,0,0,0,0],"sum_hessian":[8.995895E1,3.1785725E1,5.8173225E1,1.5058182E1,1.6727543E1,3.4837704E1,2.3335522E1,7.0873137E0,7.9708676E0,9.8747225E0,6.8528204E0,3.9891632E0,3.084854E1,4.570458E0,1.8765062E1,4.953188E0,2.134126E0,1.5258969E0,6.4449706E0,3.8096383E0,6.0650845E0,4.461287E0,2.3915336E0,1.8183322E0,2.170831E0,1.2169803E0,2.963156E1,2.67365E0,1.8968078E0,4.3806486E0,1.4384415E1,1.784658E0,3.16853E0,5.3699284E0,1.0750422E0,1.5778788E0,4.4872055E0,3.1793094E0,1.2013391E0,1.3374738E0,1.3046941E1,1.7438424E0,2.7433631E0,2.172601E0,1.0067083E0,1.2022241E1,1.0247006E0],"tree_param":{"num_deleted":"0","num_feature":"9","num_nodes":"47","size_leaf_vector":"1"}},{"base_weights":[2.1798687E-2,8.0072004E-1,-4.2369896E-1,1.9279163E-1,1.2957904E0,-8.80592E-1,2.4946761E-1,1.1475921E0,-7.261043E-1,1.8717499E0,3.0070794E-1,-4.9288312E-1,-5.3540498E-2,1.8255154E0,-2.2744773E-1,2.0545964E0,-6.000684E-1,2.9009224E-3,-8.9916015E-1,1.998002E0,1.6886858E-2,-4.771545E-2,1.05738334E-1,1.530193E-1,-5.0935324E-2,1.1670754E-1,2.7042404E-2,9.4741935E-1,-6.389299E-1,2.8800616E-2,1.3006894E-1,-6.747685E-3,-3.680595E-2,-5.050884E-2,-6.635087E-3,1.1257007E-1,9.345715E-1,-4.2432603E-1,7.301497E-2,1.5316775E0,-3.194087E-2,6.8243134E-1,-9.245146E-1,-8.628575E-3,7.309485E-2,1.4134261E-2,-4.3194093E-2,1.03260495E-1,-5.329137E-3,8.19229E-2,-3.1467106E-2,-4.9388412E-2,-4.8641926E-3],"categories":[],"categories_nodes":[],"categories_segments":[],"categories_sizes":[],"default_left":[0,0,0,0,0,0,0,0,0,0,0,0,0,0,0,0,0,0,0,0,0,0,0,0,0,0,0,0,0,0,0,0,0,0,0,0,0,0,0,0,0,0,0,0,0,0,0,0,0,0,0,0,0],"id":5,"left_children":[1,3,5,7,9,11,13,15,17,19,21,23,-1,25,27,29,31,-1,33,35,-1,-1,-1,37,-1,-1,-1,39,41,-1,-1,-1,-1,-1,-1,-1,43,45,-1,47,-1,49,51,-1,-1,-1,-1,-1,-1,-1,-1,-1,-1],"loss_changes":[3.1618505E1,9.725122E0,1.8057533E1,1.4915523E1,9.806309E0,2.0364075E0,1.8625935E1,1.4324654E1,1.2451606E0,1.5075111E0,1.9831308E1,4.6718426E0,0E0,2.4876518E0,1.0026968E1,3.0801353E0,1.2819636E-1,0E0,4.8392868E-1,6.466179E-1,0E0,0E0,0E0,5.779447E0,0E0,0E0,0E0,6.0367556E0,6.3029814E0,0E0,0E0,0E0,0E0,0E0,0E0,0E0,2.397258E0,1.9587202E0,0E0,3.9638262E0,0E0,5.1026764E0,5.728493E-1,0E0,0E0,0E0,0E0,0E0,0E0,0E0,0E0,0E0,0E0],"parents":[2147483647,0,0,1,1,2,2,3,3,4,4,5,5,6,6,7,7,8,8,9,9,10,10,11,11,13,13,14,14,15,15,16,16,18,18,19,19,23,23,27,27,28,28,36,36,37,37,39,39,41,41,42,42],"right_children":[2,4,6,8,10,12,14,16,18,20,22,24,-1,26,28,30,32,-1,34,36,-1,-1,-1,38,-1,-1,-1,40,42,-1,-1,-1,-1,-1,-1,-1,44,46,-1,48,-1,50,52,-1,-1,-1,-1,-1,-1,-1,-1,-1,-1],"split_conditions":[9.008991E4,8.723531E4,1.0452279E5,8.628601E4,8.883407E4,4.421024E1,1.02250734E5,9.147209E4,5.6775555E2,1.3218427E3,9.593893E4,9.457346E4,-5.3540498E-2,1.0509148E5,3.9500076E1,8.552192E4,4.460845E1,2.9009224E-3,7.812817E2,8.732501E4,1.6886858E-2,-4.771545E-2,1.05738334E-1,9.558898E4,-5.0935324E-2,1.1670754E-1,2.7042404E-2,1.0311265E5,1.0473509E5,2.8800616E-2,1.3006894E-1,-6.747685E-3,-3.680595E-2,-5.050884E-2,-6.635087E-3,1.1257007E-1,8.7316414E4,9.162675E4,7.301497E-2,7.716279E2,-3.194087E-2,1.0284434E5,1.6634781E3,-8.628575E-3,7.309485E-2,1.4134261E-2,-4.3194093E-2,1.03260495E-1,-5.329137E-3,8.19229E-2,-3.1467106E-2,-4.9388412E-2,-4.8641926E-3],"split_indices":[2,6,7,3,6,5,6,7,4,8,7,3,0,7,5,6,5,0,8,0,0,0,0,6,0,0,0,0,7,0,0,0,0,0,0,0,6,1,0,8,0,6,4,0,0,0,0,0,0,0,0,0,0],"split_type":[0,0,0,0,0,0,0,0,0,0,0,0,0,0,0,0,0,0,0,0,0,0,0,0,0,0,0,0,0,0,0,0,0,0,0,0,0,0,0,0,0,0,0,0,0,0,0,0,0,0,0,0,0],"sum_hessian":[8.913993E1,3.2142925E1,5.699701E1,1.505067E1,1.7092253E1,3.3769066E1,2.3227943E1,7.259075E0,7.7915945E0,1.0268048E1,6.8242054E0,1.2296686E1,2.1472378E1,4.739083E0,1.8488861E1,4.6632867E0,2.5957885E0,1.5288875E0,6.262707E0,9.207765E0,1.0602837E0,4.3137608E0,2.5104446E0,5.836424E0,6.460262E0,2.8097105E0,1.9293723E0,4.4579716E0,1.40308895E1,1.8133003E0,2.8499866E0,1.038255E0,1.5575336E0,5.1926103E0,1.0700967E0,6.5337567E0,2.6740077E0,4.516969E0,1.3194549E0,3.2831025E0,1.1748687E0,2.246597E0,1.1784292E1,1.0797557E0,1.594252E0,1.8684739E0,2.6484952E0,2.279972E0,1.0031306E0,1.1554554E0,1.0911416E0,1.0766939E1,1.0173533E0],"tree_param":{"num_deleted":"0","num_feature":"9","num_nodes":"53","size_leaf_vector":"1"}},{"base_weights":[2.491576E-2,7.618395E-1,-4.0923345E-1,1.8639618E-1,1.2205591E0,-8.6502373E-1,2.4584007E-1,1.016939E0,-7.8762877E-1,1.7354939E0,2.9343688E-1,-4.7760594E-1,-5.2943982E-2,1.7144796E0,-2.1686861E-1,1.6574233E0,-4.0055547E-2,-4.9159925E-2,-1.4941701E-1,1.1496917E-1,1.1097769E0,-4.7079444E-2,9.896507E-2,1.5113741E-1,-5.0309725E-2,1.0903511E-1,2.5869234E-2,9.0046734E-1,-6.2225497E-1,1.00412704E-1,-8.7797595E-3,-2.9990632E-2,1.9081501E-2,-3.847262E-2,1.7410787E0,-4.1310272E-1,6.905139E-2,1.4462085E0,-3.1460967E-2,6.566314E-1,-9.0998733E-1,1.2323173E-1,3.7675533E-2,1.3582948E-2,-4.255269E-2,9.259245E-2,1.0758445E-2,9.0384215E-2,-3.373767E-2,-4.8708316E-2,-4.74991E-3],"categories":[],"categories_nodes":[],"categories_segments":[],"categories_sizes":[],"default_left":[0,0,0,0,0,0,0,0,0,0,0,0,0,0,0,0,0,0,0,0,0,0,0,0,0,0,0,0,0,0,0,0,0,0,0,0,0,0,0,0,0,0,0,0,0,0,0,0,0,0,0],"id":6,"left_children":[1,3,5,7,9,11,13,15,17,19,21,23,-1,25,27,29,-1,-1,31,-1,33,-1,-1,35,-1,-1,-1,37,39,-1,-1,-1,-1,-1,41,43,-1,45,-1,47,49,-1,-1,-1,-1,-1,-1,-1,-1,-1,-1],"loss_changes":[2.8872726E1,8.600807E0,1.7179668E1,1.3756775E1,8.289152E0,2.0276318E0,1.6745438E1,1.1901696E1,8.43431E-1,1.5570221E0,1.8071428E1,4.496255E0,0E0,2.1561527E0,9.26148E0,4.880518E0,0E0,0E0,9.5608634E-1,0E0,1.0181463E1,0E0,0E0,5.31676E0,0E0,0E0,0E0,5.520476E0,6.0020323E0,0E0,0E0,0E0,0E0,0E0,2.348238E0,1.8680787E0,0E0,1.7856007E0,0E0,6.2438045E0,5.564966E-1,0E0,0E0,0E0,0E0,0E0,0E0,0E0,0E0,0E0,0E0],"parents":[2147483647,0,0,1,1,2,2,3,3,4,4,5,5,6,6,7,7,8,8,9,9,10,10,11,11,13,13,14,14,15,15,18,18,20,20,23,23,27,27,28,28,34,34,35,35,37,37,39,39,40,40],"right_children":[2,4,6,8,10,12,14,16,18,20,22,24,-1,26,28,30,-1,-1,32,-1,34,-1,-1,36,-1,-1,-1,38,40,-1,-1,-1,-1,-1,42,44,-1,46,-1,48,50,-1,-1,-1,-1,-1,-1,-1,-1,-1,-1],"split_conditions":[9.008991E4,8.723531E4,1.0452279E5,8.645493E4,8.883407E4,4.421024E1,1.02250734E5,9.7732983E2,7.4806195E2,6.921012E2,9.593893E4,9.457346E4,-5.2943982E-2,1.0509148E5,3.9500076E1,6.015601E1,-4.0055547E-2,-4.9159925E-2,8.939362E4,1.1496917E-1,8.751678E4,-4.7079444E-2,9.896507E-2,9.558898E4,-5.0309725E-2,1.0903511E-1,2.5869234E-2,1.0311265E5,1.0473509E5,1.00412704E-1,-8.7797595E-3,-2.9990632E-2,1.9081501E-2,-3.847262E-2,3.6148495E1,9.162675E4,6.905139E-2,7.684033E2,-3.1460967E-2,1.0269472E5,1.6634781E3,1.2323173E-1,3.7675533E-2,1.3582948E-2,-4.255269E-2,9.259245E-2,1.0758445E-2,9.0384215E-2,-3.373767E-2,-4.8708316E-2,-4.74991E-3],"split_indices":[2,6,7,3,6,5,6,8,8,8,7,3,0,7,5,5,0,0,7,0,6,0,0,6,0,0,0,0,7,0,0,0,0,0,5,1,0,8,0,6,4,0,0,0,0,0,0,0,0,0,0],"split_type":[0,0,0,0,0,0,0,0,0,0,0,0,0,0,0,0,0,0,0,0,0,0,0,0,0,0,0,0,0,0,0,0,0,0,0,0,0,0,0,0,0,0,0,0,0,0,0,0,0,0,0],"sum_hessian":[8.8271164E1,3.2444748E1,5.5826416E1,1.5015194E1,1.7429552E1,3.2731697E1,2.3094719E1,8.080749E0,6.9344454E0,1.0645178E1,6.784375E0,1.207124E1,2.0660456E1,4.8848553E0,1.8209864E1,6.04093E0,2.039819E0,4.894157E0,2.0402882E0,4.192314E0,6.4528637E0,4.170582E0,2.613793E0,5.8394403E0,6.2318E0,2.9242928E0,1.9605622E0,4.522787E0,1.3687077E1,4.9902253E0,1.0507041E0,1.03391E0,1.0063782E0,1.5676186E0,4.8852453E0,4.458237E0,1.3812033E0,3.3737264E0,1.1490608E0,2.2783563E0,1.140872E1,1.9562848E0,2.9289606E0,1.8871987E0,2.5710385E0,2.15826E0,1.2154663E0,1.030064E0,1.2482924E0,1.0394833E1,1.0138876E0],"tree_param":{"num_deleted":"0","num_feature":"9","num_nodes":"51","size_leaf_vector":"1"}},{"base_weights":[2.7700143E-2,7.259716E-1,-3.952088E-1,1.7575568E-1,1.1582903E0,-8.498804E-1,2.43022E-1,9.544089E-1,-7.73345E-1,1.6260439E0,2.8628227E-1,-4.6300817E-1,-1.0473455E0,1.6165483E0,-2.0598358E-1,1.5406089E0,-3.944157E-2,-4.850947E-2,-1.4612253E-1,1.9863591E0,9.072643E-1,-4.6459794E-2,9.304223E-2,1.4885446E-1,-4.9702864E-2,-4.5702744E-1,-5.4430254E-2,9.513085E-2,1.0031475E-2,6.060037E-1,-7.4501544E-1,9.28446E-2,-8.576432E-3,-2.9547809E-2,1.8487575E-2,3.3945117E-2,1.1932679E-1,1.1497451E-1,-4.647118E-1,-4.0228632E-1,6.538921E-2,-2.9987235E-2,-4.206762E-3,1.2244667E0,-3.919887E-2,2.6338315E-2,-5.2053582E-2,-4.2313956E-2,1.4368849E-2,1.3055148E-2,-4.192702E-2,7.962053E-2,-9.149571E-3],"categories":[],"categories_nodes":[],"categories_segments":[],"categories_sizes":[],"default_left":[0,0,0,0,0,0,0,0,0,0,0,0,0,0,0,0,0,0,0,0,0,0,0,0,0,0,0,0,0,0,0,0,0,0,0,0,0,0,0,0,0,0,0,0,0,0,0,0,0,0,0,0,0],"id":7,"left_children":[1,3,5,7,9,11,13,15,17,19,21,23,25,27,29,31,-1,-1,33,35,37,-1,-1,39,-1,41,-1,-1,-1,43,45,-1,-1,-1,-1,-1,-1,-1,47,49,-1,-1,-1,51,-1,-1,-1,-1,-1,-1,-1,-1,-1],"loss_changes":[2.637101E1,7.8055286E0,1.6357975E1,1.255792E1,7.152294E0,2.015133E0,1.5092976E1,1.0650863E1,8.1637716E-1,1.2907162E0,1.6531149E1,4.323785E0,1.089859E-2,2.0523252E0,8.734171E0,4.2437344E0,0E0,0E0,9.140667E-1,2.1018429E0,1.2201263E1,0E0,0E0,4.895766E0,0E0,1.13841355E-1,0E0,0E0,0E0,7.9245834E0,4.9996405E0,0E0,0E0,0E0,0E0,0E0,0E0,0E0,1.3243376E0,1.7820439E0,0E0,0E0,0E0,3.397174E0,0E0,0E0,0E0,0E0,0E0,0E0,0E0,0E0,0E0],"parents":[2147483647,0,0,1,1,2,2,3,3,4,4,5,5,6,6,7,7,8,8,9,9,10,10,11,11,12,12,13,13,14,14,15,15,18,18,19,19,20,20,23,23,25,25,29,29,30,30,38,38,39,39,43,43],"right_children":[2,4,6,8,10,12,14,16,18,20,22,24,26,28,30,32,-1,-1,34,36,38,-1,-1,40,-1,42,-1,-1,-1,44,46,-1,-1,-1,-1,-1,-1,-1,48,50,-1,-1,-1,52,-1,-1,-1,-1,-1,-1,-1,-1,-1],"split_conditions":[9.008991E4,8.723531E4,1.0452279E5,8.645493E4,8.883407E4,4.421024E1,1.02250734E5,9.7732983E2,7.4806195E2,7.559506E2,9.593893E4,9.457346E4,9.084272E4,1.0227282E5,1.0490617E5,6.015601E1,-3.944157E-2,-4.850947E-2,8.939362E4,8.7287586E4,3.6148495E1,-4.6459794E-2,9.304223E-2,9.558898E4,-4.9702864E-2,9.075303E4,-5.4430254E-2,9.513085E-2,1.0031475E-2,1.0489999E5,1.0153901E5,9.28446E-2,-8.576432E-3,-2.9547809E-2,1.8487575E-2,3.3945117E-2,1.1932679E-1,1.1497451E-1,8.653004E4,9.162675E4,6.538921E-2,-2.9987235E-2,-4.206762E-3,1.01215796E3,-3.919887E-2,2.6338315E-2,-5.2053582E-2,-4.2313956E-2,1.4368849E-2,1.3055148E-2,-4.192702E-2,7.962053E-2,-9.149571E-3],"split_indices":[2,6,7,3,6,5,6,8,8,8,7,3,3,0,7,5,0,0,7,6,5,0,0,6,0,0,0,0,0,3,3,0,0,0,0,0,0,0,3,1,0,0,0,4,0,0,0,0,0,0,0,0,0],"split_type":[0,0,0,0,0,0,0,0,0,0,0,0,0,0,0,0,0,0,0,0,0,0,0,0,0,0,0,0,0,0,0,0,0,0,0,0,0,0,0,0,0,0,0,0,0,0,0,0,0,0,0,0,0],"sum_hessian":[8.732929E1,3.267028E1,5.465901E1,1.4993922E1,1.7676357E1,3.1725996E1,2.2933018E1,8.233484E0,6.7604384E0,1.09421625E1,6.7341948E0,1.1851462E1,1.9874533E1,5.009246E0,1.7923773E1,6.2485275E0,1.9849561E0,4.729388E0,2.0310504E0,6.1138496E0,4.828313E0,4.0317607E0,2.702434E0,5.841136E0,6.0103264E0,2.0873122E0,1.7787222E1,3.8813367E0,1.1279092E0,7.101685E0,1.0822087E1,5.202858E0,1.0456698E0,1.0124662E0,1.0185844E0,2.0646703E0,4.049179E0,2.060926E0,2.7673872E0,4.401052E0,1.4400841E0,1.0695887E0,1.0177236E0,4.9972625E0,2.1044226E0,1.8963923E0,8.925694E0,1.7528512E0,1.0145359E0,1.9052799E0,2.4957721E0,3.857428E0,1.1398345E0],"tree_param":{"num_deleted":"0","num_feature":"9","num_nodes":"53","size_leaf_vector":"1"}},{"base_weights":[2.878069E-2,6.934663E-1,-3.8334462E-1,1.656075E-1,1.1028683E0,-8.3556527E-1,2.3542622E-1,8.9819235E-1,-7.594384E-1,1.5306203E0,2.7927807E-1,-4.4905284E-1,-1.0365943E0,1.0938791E0,-4.309864E-1,1.4383314E0,-3.884248E-2,-4.7877118E-2,-7.1515366E-3,1.00509904E-1,9.899238E-1,-4.5855086E-2,8.782226E-2,1.462338E-1,-4.9112935E-2,-4.4918302E-1,-5.3935695E-2,1.1428102E-1,1.02316506E-1,8.389714E-1,-8.189846E-1,2.5785577E-1,9.6072786E-2,-3.8109403E-2,1.553746E0,-3.918586E-1,6.2000174E-2,-2.9628752E-2,-3.972836E-3,1.0601282E-1,-4.784645E-2,6.5796286E-2,-8.841068E-3,-8.8256776E-1,-4.6792733E-3,5.239538E-2,-3.480758E-2,1.0782408E-1,3.4585517E-2,1.25497E-2,-4.1316032E-2,-8.562171E-3,-4.763488E-2],"categories":[],"categories_nodes":[],"categories_segments":[],"categories_sizes":[],"default_left":[0,0,0,0,0,0,0,0,0,0,0,0,0,0,0,0,0,0,0,0,0,0,0,0,0,0,0,0,0,0,0,0,0,0,0,0,0,0,0,0,0,0,0,0,0,0,0,0,0,0,0,0,0],"id":8,"left_children":[1,3,5,7,9,11,13,15,17,19,21,23,25,27,29,31,-1,-1,-1,-1,33,-1,-1,35,-1,37,-1,-1,39,41,43,45,-1,-1,47,49,-1,-1,-1,-1,-1,-1,-1,51,-1,-1,-1,-1,-1,-1,-1,-1,-1],"loss_changes":[2.4220507E1,7.127018E0,1.5481256E1,1.1491985E1,6.2213306E0,2.0036964E0,1.4112377E1,9.585772E0,7.900648E-1,1.1731606E0,1.5173817E1,4.1548567E0,1.3776779E-2,1.2414104E1,7.654945E0,3.741026E0,0E0,0E0,0E0,0E0,8.7949295E0,0E0,0E0,4.512452E0,0E0,1.1520153E-1,0E0,0E0,1.6754547E1,2.0753176E0,4.403348E-1,3.225992E0,0E0,0E0,1.7076931E0,1.7003539E0,0E0,0E0,0E0,0E0,0E0,0E0,0E0,3.509407E-1,0E0,0E0,0E0,0E0,0E0,0E0,0E0,0E0,0E0],"parents":[2147483647,0,0,1,1,2,2,3,3,4,4,5,5,6,6,7,7,8,8,9,9,10,10,11,11,12,12,13,13,14,14,15,15,20,20,23,23,25,25,28,28,29,29,30,30,31,31,34,34,35,35,43,43],"right_children":[2,4,6,8,10,12,14,16,18,20,22,24,26,28,30,32,-1,-1,-1,-1,34,-1,-1,36,-1,38,-1,-1,40,42,44,46,-1,-1,48,50,-1,-1,-1,-1,-1,-1,-1,52,-1,-1,-1,-1,-1,-1,-1,-1,-1],"split_conditions":[9.008991E4,8.723531E4,1.0452279E5,8.645493E4,8.883407E4,4.421024E1,1.0260255E5,9.7732983E2,7.4806195E2,6.921012E2,9.593893E4,9.457346E4,9.084272E4,1.0509148E5,3.5431458E1,8.552192E4,-3.884248E-2,-4.7877118E-2,-7.1515366E-3,1.00509904E-1,8.751678E4,-4.5855086E-2,8.782226E-2,9.558898E4,-4.9112935E-2,9.059135E4,-5.3935695E-2,1.1428102E-1,1.0153901E5,1.0488797E5,1.0615314E5,8.507288E4,9.6072786E-2,-3.8109403E-2,3.6148495E1,9.162675E4,6.2000174E-2,-2.9628752E-2,-3.972836E-3,1.0601282E-1,-4.784645E-2,6.5796286E-2,-8.841068E-3,6.1794324E2,-4.6792733E-3,5.239538E-2,-3.480758E-2,1.0782408E-1,3.4585517E-2,1.25497E-2,-4.1316032E-2,-8.562171E-3,-4.763488E-2],"split_indices":[2,6,7,3,6,5,6,8,8,8,7,3,3,7,5,6,0,0,0,0,6,0,0,6,0,2,0,0,3,7,0,3,0,0,5,1,0,0,0,0,0,0,0,8,0,0,0,0,0,0,0,0,0],"split_type":[0,0,0,0,0,0,0,0,0,0,0,0,0,0,0,0,0,0,0,0,0,0,0,0,0,0,0,0,0,0,0,0,0,0,0,0,0,0,0,0,0,0,0,0,0,0,0,0,0,0,0,0,0],"sum_hessian":[8.6446945E1,3.2824364E1,5.362258E1,1.4951408E1,1.7872955E1,3.0778297E1,2.2844284E1,8.3598795E0,6.5915294E0,1.1198343E1,6.674611E0,1.1637328E1,1.9140968E1,9.703316E0,1.3140967E1,6.4283047E0,1.9315743E0,4.569529E0,2.0220003E0,4.4942846E0,6.7040586E0,3.8972876E0,2.7773232E0,5.8414774E0,5.795851E0,2.0610783E0,1.7079891E1,3.8141217E0,5.8891945E0,2.8032703E0,1.0337697E1,2.3122447E0,4.1160603E0,1.5464739E0,5.157585E0,4.34543E0,1.4960477E0,1.0508028E0,1.0102756E0,1.6824113E0,4.206783E0,1.706524E0,1.0967463E0,9.30539E0,1.0323064E0,1.2109671E0,1.1012776E0,2.1515832E0,3.0060017E0,1.9227366E0,2.422693E0,1.1439679E0,8.161423E0],"tree_param":{"num_deleted":"0","num_feature":"9","num_nodes":"53","size_leaf_vector":"1"}},{"base_weights":[3.0587623E-2,6.6453975E-1,-3.7134498E-1,1.8484944E-1,1.0753583E0,-8.216226E-1,2.3152822E-1,7.374213E-1,-4.8465088E-2,1.8394799E0,5.122977E-1,-4.3570536E-1,-1.0261772E0,1.048465E0,-4.172088E-1,1.0936333E0,-3.8257428E-2,1.0187081E-1,2.6331548E-2,9.490425E-1,-4.5540173E-2,1.4333053E-1,-4.85383E-2,-4.414971E-1,-5.3460576E-2,1.0717218E-1,1.0539921E-1,8.031122E-1,-8.0346763E-1,1.4800342E0,-2.3874503E-1,-3.570623E-2,1.391661E0,-3.934631E-2,7.1175116E-1,-2.9199226E-2,-3.8788968E-3,9.958049E-2,-4.7199164E-2,6.262561E-2,-8.6352555E-3,-8.673723E-1,-4.568605E-3,8.0308795E-2,2.4127463E-2,1.3372595E-2,-3.171617E-2,1.0158526E-1,3.8782444E-2,6.7778036E-2,-3.2737132E-2,-8.360342E-3,-4.690432E-2],"categories":[],"categories_nodes":[],"categories_segments":[],"categories_sizes":[],"default_left":[0,0,0,0,0,0,0,0,0,0,0,0,0,0,0,0,0,0,0,0,0,0,0,0,0,0,0,0,0,0,0,0,0,0,0,0,0,0,0,0,0,0,0,0,0,0,0,0,0,0,0,0,0],"id":9,"left_children":[1,3,5,7,9,11,13,15,-1,17,19,21,23,25,27,29,-1,-1,-1,31,-1,33,-1,35,-1,-1,37,39,41,43,45,-1,47,-1,49,-1,-1,-1,-1,-1,-1,51,-1,-1,-1,-1,-1,-1,-1,-1,-1,-1,-1],"loss_changes":[2.2265532E1,6.479347E0,1.4720411E1,1.1455184E1,6.8222046E0,1.9890652E0,1.2979521E1,7.2363048E0,0E0,8.163166E-1,8.18379E0,3.989827E0,1.6874313E-2,1.0884651E1,7.1999702E0,5.5412235E0,0E0,0E0,0E0,7.987727E0,0E0,4.1771746E0,0E0,1.1209983E-1,0E0,0E0,1.5403841E1,1.9017775E0,4.2415905E-1,2.2528839E-1,7.9569894E-1,0E0,1.516345E0,0E0,5.084958E0,0E0,0E0,0E0,0E0,0E0,0E0,3.3993292E-1,0E0,0E0,0E0,0E0,0E0,0E0,0E0,0E0,0E0,0E0,0E0],"parents":[2147483647,0,0,1,1,2,2,3,3,4,4,5,5,6,6,7,7,9,9,10,10,11,11,12,12,13,13,14,14,15,15,19,19,21,21,23,23,26,26,27,27,28,28,29,29,30,30,32,32,34,34,41,41],"right_children":[2,4,6,8,10,12,14,16,-1,18,20,22,24,26,28,30,-1,-1,-1,32,-1,34,-1,36,-1,-1,38,40,42,44,46,-1,48,-1,50,-1,-1,-1,-1,-1,-1,52,-1,-1,-1,-1,-1,-1,-1,-1,-1,-1,-1],"split_conditions":[9.008991E4,8.726106E4,1.0452279E5,8.699502E4,8.924121E4,4.421024E1,1.0260255E5,9.7732983E2,-4.8465088E-2,8.8E4,3.700287E1,9.457346E4,9.084272E4,1.0509148E5,3.5431458E1,5.7828106E1,-3.8257428E-2,1.0187081E-1,2.6331548E-2,6.7333514E2,-4.5540173E-2,9.3158586E4,-4.85383E-2,9.059135E4,-5.3460576E-2,1.0717218E-1,1.0153901E5,1.0488797E5,1.0615314E5,1.1876971E3,6.774936E2,-3.570623E-2,8.883407E4,-3.934631E-2,2.2328105E3,-2.9199226E-2,-3.8788968E-3,9.958049E-2,-4.7199164E-2,6.262561E-2,-8.6352555E-3,6.1794324E2,-4.568605E-3,8.0308795E-2,2.4127463E-2,1.3372595E-2,-3.171617E-2,1.0158526E-1,3.8782444E-2,6.7778036E-2,-3.2737132E-2,-8.360342E-3,-4.690432E-2],"split_indices":[2,6,7,3,7,5,6,8,0,1,5,3,3,7,5,5,0,0,0,8,0,6,0,2,0,0,3,7,0,4,4,0,6,0,4,0,0,0,0,0,0,8,0,0,0,0,0,0,0,0,0,0,0],"split_type":[0,0,0,0,0,0,0,0,0,0,0,0,0,0,0,0,0,0,0,0,0,0,0,0,0,0,0,0,0,0,0,0,0,0,0,0,0,0,0,0,0,0,0,0,0,0,0,0,0,0,0,0,0],"sum_hessian":[8.54138E1,3.2887817E1,5.252599E1,1.5841046E1,1.704677E1,2.9860643E1,2.2665346E1,1.095649E1,4.884557E0,6.2703853E0,1.0776384E1,1.1428811E1,1.8431833E1,9.759417E0,1.290593E1,9.076819E0,1.8796704E0,4.9692717E0,1.3011137E0,8.500674E0,2.2757106E0,5.840461E0,5.58835E0,2.03553E0,1.6396303E1,3.926997E0,5.83242E0,2.8434165E0,1.0062512E1,6.9503403E0,2.1264787E0,1.6578374E0,6.8428364E0,2.0693798E0,3.771081E0,1.0282311E0,1.007299E0,1.7639406E0,4.0684795E0,1.7526871E0,1.0907294E0,9.033752E0,1.0287604E0,5.628355E0,1.3219855E0,1.0748968E0,1.0515817E0,2.2288628E0,4.6139736E0,2.5688121E0,1.2022687E0,1.1373171E0,7.8964353E0],"tree_param":{"num_deleted":"0","num_feature":"9","num_nodes":"53","size_leaf_vector":"1"}},{"base_weights":[3.0872311E-2,6.3370234E-1,-3.6055446E-1,1.4856897E-1,1.0005112E0,-8.08479E-1,2.2759925E-1,8.1090915E-1,-7.356766E-1,1.6021017E0,4.8940507E-1,-4.2494774E-1,-1.0160617E0,1.0073358E0,-4.0398362E-1,1.3741343E0,-5.805459E-1,-4.6851687E-2,-6.6105626E-3,9.791563E-2,6.962909E-1,9.0278757E-1,-4.4741135E-2,1.3424224E-1,-4.7977492E-2,-4.3398234E-1,-5.300304E-2,1.0106137E-1,1.0775882E-1,7.6934266E-1,-7.882384E-1,2.0798434E-1,9.5898174E-2,-7.5312965E-3,-3.509137E-2,-1.2106815E-2,5.855436E-2,-3.5188004E-2,1.3157116E0,-3.820891E-1,5.7074733E-2,-2.8856179E-2,-3.6578097E-3,9.3858436E-2,-4.6568375E-2,6.005155E-2,-8.91964E-3,-8.5273343E-1,-4.2870566E-3,4.7206067E-2,-3.465857E-2,9.6102774E-2,3.667703E-2,1.24276765E-2,-4.0857486E-2,-8.18084E-3,-4.6200033E-2],"categories":[],"categories_nodes":[],"categories_segments":[],"categories_sizes":[],"default_left":[0,0,0,0,0,0,0,0,0,0,0,0,0,0,0,0,0,0,0,0,0,0,0,0,0,0,0,0,0,0,0,0,0,0,0,0,0,0,0,0,0,0,0,0,0,0,0,0,0,0,0,0,0,0,0,0,0],"id":10,"left_children":[1,3,5,7,9,11,13,15,17,19,21,23,25,27,29,31,33,-1,-1,-1,35,37,-1,39,-1,41,-1,-1,43,45,47,49,-1,-1,-1,-1,-1,-1,51,53,-1,-1,-1,-1,-1,-1,-1,55,-1,-1,-1,-1,-1,-1,-1,-1,-1],"loss_changes":[2.0397955E1,5.904166E0,1.4005333E1,9.861461E0,5.117817E0,1.9567833E0,1.1961008E1,8.258749E0,7.6303935E-1,1.3393688E0,7.5700445E0,3.792253E0,2.0080566E-2,9.6194315E0,6.77232E0,4.087346E0,7.397413E-2,0E0,0E0,0E0,2.0284603E0,7.292941E0,0E0,4.007427E0,0E0,1.1327779E-1,0E0,0E0,1.4198281E1,1.8016334E0,4.160285E-1,2.8909383E0,0E0,0E0,0E0,0E0,0E0,0E0,1.4083395E0,1.6542169E0,0E0,0E0,0E0,0E0,0E0,0E0,0E0,3.2895184E-1,0E0,0E0,0E0,0E0,0E0,0E0,0E0,0E0,0E0],"parents":[2147483647,0,0,1,1,2,2,3,3,4,4,5,5,6,6,7,7,8,8,9,9,10,10,11,11,12,12,13,13,14,14,15,15,16,16,20,20,21,21,23,23,25,25,28,28,29,29,30,30,31,31,38,38,39,39,47,47],"right_children":[2,4,6,8,10,12,14,16,18,20,22,24,26,28,30,32,34,-1,-1,-1,36,38,-1,40,-1,42,-1,-1,44,46,48,50,-1,-1,-1,-1,-1,-1,52,54,-1,-1,-1,-1,-1,-1,-1,56,-1,-1,-1,-1,-1,-1,-1,-1,-1],"split_conditions":[9.008991E4,8.723531E4,1.0452279E5,8.645493E4,8.924121E4,4.421024E1,1.0260255E5,9.147209E4,7.4806195E2,8.732501E4,3.700287E1,9.457346E4,9.084272E4,1.0509148E5,3.5431458E1,8.552192E4,4.460845E1,-4.6851687E-2,-6.6105626E-3,9.791563E-2,8.7316414E4,6.7333514E2,-4.4741135E-2,9.558898E4,-4.7977492E-2,9.075303E4,-5.300304E-2,1.0106137E-1,1.0153901E5,1.030379E5,1.06546E5,8.507288E4,9.5898174E-2,-7.5312965E-3,-3.509137E-2,-1.2106815E-2,5.855436E-2,-3.5188004E-2,8.883407E4,9.162675E4,5.7074733E-2,-2.8856179E-2,-3.6578097E-3,9.3858436E-2,-4.6568375E-2,6.005155E-2,-8.91964E-3,6.1794324E2,-4.2870566E-3,4.7206067E-2,-3.465857E-2,9.6102774E-2,3.667703E-2,1.24276765E-2,-4.0857486E-2,-8.18084E-3,-4.6200033E-2],"split_indices":[2,6,7,3,7,5,6,7,8,0,5,3,3,7,5,6,5,0,0,0,6,8,0,6,0,0,0,0,3,0,1,3,0,0,0,0,0,0,6,1,0,0,0,0,0,0,0,8,0,0,0,0,0,0,0,0,0],"split_type":[0,0,0,0,0,0,0,0,0,0,0,0,0,0,0,0,0,0,0,0,0,0,0,0,0,0,0,0,0,0,0,0,0,0,0,0,0,0,0,0,0,0,0,0,0,0,0,0,0,0,0,0,0,0,0,0,0],"sum_hessian":[8.4476974E1,3.3013878E1,5.1463097E1,1.481927E1,1.8194609E1,2.9001558E1,2.2461536E1,8.520194E0,6.2990766E0,7.3770165E0,1.0817593E1,1.12546015E1,1.7746958E1,9.785573E0,1.2675963E1,6.0740304E0,2.4461632E0,4.3086596E0,1.9904169E0,4.460842E0,2.9161742E0,8.597777E0,2.2198157E0,5.866831E0,5.3877707E0,2.0106614E0,1.5736297E1,4.0142937E0,5.7712793E0,2.879922E0,9.7960415E0,2.3714018E0,3.7026289E0,1.0315317E0,1.4146316E0,1.1443686E0,1.7718056E0,1.613983E0,6.9837937E0,4.288929E0,1.5779016E0,1.0103863E0,1.000275E0,1.8369163E0,3.934363E0,1.7950312E0,1.0848907E0,8.776433E0,1.0196087E0,1.278963E0,1.0924388E0,2.2935169E0,4.690277E0,1.9259124E0,2.3630168E0,1.1314756E0,7.6449575E0],"tree_param":{"num_deleted":"0","num_feature":"9","num_nodes":"57","size_leaf_vector":"1"}},{"base_weights":[3.1873737E-2,6.159804E-1,-3.4462783E-1,1.6726637E-1,1.002353E0,-7.770867E-1,2.236596E-1,6.720913E-1,-4.747593E-2,3.6135364E-1,1.5229751E0,-3.8813227E-1,-1.0062132E0,9.6992695E-1,-3.9125237E-1,9.925717E-1,-3.730529E-2,1.040082E0,-4.2532545E-2,2.7750088E-2,8.250244E-2,1.2937348E-1,-4.7429163E-2,-2.1330938E-2,-5.256138E-2,9.575417E-2,1.0950837E-1,7.372692E-1,-7.732662E-1,1.3357508E0,-2.3390323E-1,9.125235E-2,1.346256E-1,-3.2344744E-1,5.42878E-2,8.874184E-2,-4.5952726E-2,5.8354504E-2,-9.922262E-3,-8.3834565E-1,-4.029808E-3,7.220035E-2,2.2294186E-2,1.19496165E-2,-3.0576354E-2,6.764913E-2,-4.2569377E-2,-4.30482E-2,1.6373208E-2,-7.5665116E-3,-4.5481797E-2],"categories":[],"categories_nodes":[],"categories_segments":[],"categories_sizes":[],"default_left":[0,0,0,0,0,0,0,0,0,0,0,0,0,0,0,0,0,0,0,0,0,0,0,0,0,0,0,0,0,0,0,0,0,0,0,0,0,0,0,0,0,0,0,0,0,0,0,0,0,0,0],"id":11,"left_children":[1,3,5,7,9,11,13,15,-1,17,19,21,23,25,27,29,-1,31,-1,-1,-1,33,-1,-1,-1,-1,35,37,39,41,43,-1,45,47,-1,-1,-1,-1,-1,49,-1,-1,-1,-1,-1,-1,-1,-1,-1,-1,-1],"loss_changes":[1.8778162E1,5.631118E0,1.2947207E1,1.0039469E1,5.3804417E0,2.259716E0,1.1042574E1,6.2263184E0,0E0,8.515502E0,2.5222206E-1,3.7922897E0,2.3393631E-2,8.560666E0,6.369466E0,4.636821E0,0E0,4.300362E0,0E0,0E0,0E0,3.5810435E0,0E0,0E0,0E0,0E0,1.3117903E1,1.8057549E0,4.0747833E-1,1.4384842E-1,6.9924724E-1,0E0,6.0169435E0,2.3224182E0,0E0,0E0,0E0,0E0,0E0,3.2894087E-1,0E0,0E0,0E0,0E0,0E0,0E0,0E0,0E0,0E0,0E0,0E0],"parents":[2147483647,0,0,1,1,2,2,3,3,4,4,5,5,6,6,7,7,9,9,10,10,11,11,12,12,13,13,14,14,15,15,17,17,21,21,26,26,27,27,28,28,29,29,30,30,32,32,33,33,39,39],"right_children":[2,4,6,8,10,12,14,16,-1,18,20,22,24,26,28,30,-1,32,-1,-1,-1,34,-1,-1,-1,-1,36,38,40,42,44,-1,46,48,-1,-1,-1,-1,-1,50,-1,-1,-1,-1,-1,-1,-1,-1,-1,-1,-1],"split_conditions":[8.983534E4,8.726106E4,1.0452279E5,8.699502E4,8.656548E4,4.421024E1,1.0260255E5,9.7732983E2,-4.747593E-2,8.883407E4,8.730225E4,9.457346E4,9.084272E4,1.0509148E5,3.5431458E1,5.7828106E1,-3.730529E-2,3.6148495E1,-4.2532545E-2,2.7750088E-2,8.250244E-2,9.558898E4,-4.7429163E-2,-2.1330938E-2,-5.256138E-2,9.575417E-2,1.0153901E5,7.980844E2,1.0615314E5,1.1876971E3,6.774936E2,9.125235E-2,8.924121E4,8.7584784E2,5.42878E-2,8.874184E-2,-4.5952726E-2,5.8354504E-2,-9.922262E-3,1.02767664E5,-4.029808E-3,7.220035E-2,2.2294186E-2,1.19496165E-2,-3.0576354E-2,6.764913E-2,-4.2569377E-2,-4.30482E-2,1.6373208E-2,-7.5665116E-3,-4.5481797E-2],"split_indices":[2,6,7,3,2,5,6,8,0,6,6,3,3,7,5,5,0,5,0,0,0,6,0,0,0,0,3,4,0,4,4,0,7,8,0,0,0,0,0,6,0,0,0,0,0,0,0,0,0,0,0],"split_type":[0,0,0,0,0,0,0,0,0,0,0,0,0,0,0,0,0,0,0,0,0,0,0,0,0,0,0,0,0,0,0,0,0,0,0,0,0,0,0,0,0,0,0,0,0,0,0,0,0,0,0],"sum_hessian":[8.342218E1,3.2447254E1,5.0974922E1,1.5675463E1,1.6771793E1,2.8738161E1,2.2236761E1,1.1069749E1,4.6057134E0,8.27614E0,8.495653E0,1.1652087E1,1.7086073E1,9.78463E0,1.2452131E1,9.274124E0,1.795625E0,5.396131E0,2.8800097E0,1.6087427E0,6.8869104E0,6.4580526E0,5.194035E0,1.9864484E0,1.5099625E1,4.078597E0,5.7060328E0,2.913954E0,9.538177E0,7.176872E0,2.0972524E0,2.3463798E0,3.049751E0,4.832023E0,1.6260294E0,1.9016134E0,3.8044193E0,1.8273079E0,1.0866462E0,8.526741E0,1.0114359E0,5.8432884E0,1.3335831E0,1.0941597E0,1.0030926E0,1.1976777E0,1.8520734E0,2.4697897E0,2.3622332E0,1.0951974E0,7.431544E0],"tree_param":{"num_deleted":"0","num_feature":"9","num_nodes":"51","size_leaf_vector":"1"}},{"base_weights":[3.248987E-2,5.8177114E-1,-3.397531E-1,7.726376E-2,4.090911E-1,-7.821309E-1,2.1972322E-1,-5.790406E-1,5.855086E-1,-4.0146577E-1,-9.9644786E-1,9.357569E-1,-3.7890866E-1,1.4500083E-2,-4.367218E-2,7.366525E-1,-6.0854197E-1,1.2620762E-1,-4.6892103E-2,-2.084706E-2,-5.2134044E-2,9.1102414E-2,1.1074017E-1,7.062421E-1,-7.5855035E-1,1.0054401E0,-2.1478249E-1,-9.573354E-3,-3.5110585E-2,-3.813358E-2,6.3297355E-1,8.414336E-2,-4.5350973E-2,5.6291718E-2,-9.613759E-3,-8.2395095E-1,-3.934544E-3,-2.211125E-2,5.8910903E-2,7.5002484E-2,-4.613841E-2,6.098419E-2,-3.27303E-2,-7.068721E-3,-4.4893045E-2],"categories":[],"categories_nodes":[],"categories_segments":[],"categories_sizes":[],"default_left":[0,0,0,0,0,0,0,0,0,0,0,0,0,0,0,0,0,0,0,0,0,0,0,0,0,0,0,0,0,0,0,0,0,0,0,0,0,0,0,0,0,0,0,0,0],"id":12,"left_children":[1,3,5,-1,7,9,11,13,15,17,19,21,23,-1,-1,25,27,29,-1,-1,-1,-1,31,33,35,37,39,-1,-1,-1,41,-1,-1,-1,-1,43,-1,-1,-1,-1,-1,-1,-1,-1,-1],"loss_changes":[1.7239244E1,5.0306787E0,1.262376E1,0E0,5.6076517E0,1.909975E0,1.0211523E1,1.5533404E0,5.1662016E0,3.4790769E0,3.254509E-2,7.6655273E0,5.9887385E0,0E0,0E0,6.265855E0,1.6944408E-3,3.5759912E0,0E0,0E0,0E0,0E0,1.2145931E1,1.7050824E0,3.926015E-1,5.178835E0,8.71126E0,0E0,0E0,0E0,4.515148E0,0E0,0E0,0E0,0E0,3.4121513E-1,0E0,0E0,0E0,0E0,0E0,0E0,0E0,0E0,0E0],"parents":[2147483647,0,0,1,1,2,2,4,4,5,5,6,6,7,7,8,8,9,9,10,10,11,11,12,12,15,15,16,16,17,17,22,22,23,23,24,24,25,25,26,26,30,30,35,35],"right_children":[2,4,6,-1,8,10,12,14,16,18,20,22,24,-1,-1,26,28,30,-1,-1,-1,-1,32,34,36,38,40,-1,-1,-1,42,-1,-1,-1,-1,44,-1,-1,-1,-1,-1,-1,-1,-1,-1],"split_conditions":[9.008991E4,8.8835375E4,1.0452279E5,7.726376E-2,6.579864E2,4.421024E1,1.0260255E5,8.65073E4,5.6641537E1,9.457346E4,9.084272E4,1.0509148E5,3.5431458E1,1.4500083E-2,-4.367218E-2,1.00833105E3,7.128779E2,9.3158586E4,-4.6892103E-2,-2.084706E-2,-5.2134044E-2,9.1102414E-2,1.0153901E5,1.0488797E5,1.0615314E5,8.903788E4,8.364345E4,-9.573354E-3,-3.5110585E-2,-3.813358E-2,2.2328105E3,8.414336E-2,-4.5350973E-2,5.6291718E-2,-9.613759E-3,6.1794324E2,-3.934544E-3,-2.211125E-2,5.8910903E-2,7.5002484E-2,-4.613841E-2,6.098419E-2,-3.27303E-2,-7.068721E-3,-4.4893045E-2],"split_indices":[2,7,7,0,8,5,6,1,5,3,3,7,5,0,0,8,8,6,0,0,0,0,3,7,0,7,3,0,0,0,4,0,0,0,0,8,0,0,0,0,0,0,0,0,0],"split_type":[0,0,0,0,0,0,0,0,0,0,0,0,0,0,0,0,0,0,0,0,0,0,0,0,0,0,0,0,0,0,0,0,0,0,0,0,0,0,0,0,0,0,0,0,0],"sum_hessian":[8.234676E1,3.3036003E1,4.931076E1,3.8128173E0,2.9223185E1,2.7314903E1,2.1995855E1,4.081286E0,2.5141897E1,1.0873992E1,1.6440912E1,9.759361E0,1.2236495E1,1.0365288E0,3.0447574E0,2.2657019E1,2.4848802E0,5.8669443E0,5.0070477E0,1.9549458E0,1.4485967E1,4.1223464E0,5.6370144E0,2.948461E0,9.288034E0,1.7621927E1,5.03509E0,1.0139995E0,1.4708806E0,1.9469576E0,3.919987E0,1.9583937E0,3.6786206E0,1.8374239E0,1.1110371E0,8.279615E0,1.0084189E0,1.7126377E0,1.590929E1,1.1444144E0,3.8906755E0,2.7291355E0,1.1908514E0,1.0935162E0,7.186099E0],"tree_param":{"num_deleted":"0","num_feature":"9","num_nodes":"45","size_leaf_vector":"1"}},{"base_weights":[3.1305764E-2,5.618836E-1,-3.2576331E-1,1.2013642E-1,8.973732E-1,-7.5192153E-1,2.1589202E-1,7.12867E-1,-7.122003E-1,3.265385E-1,1.306908E0,-3.6990026E-1,-9.868844E-1,9.0441555E-1,-3.6705902E-1,1.2027676E0,-5.662839E-1,-4.573984E-2,-6.411853E-3,9.534054E-1,-4.1790523E-2,1.7030498E-2,7.404308E-2,1.1334067E-1,-4.636522E-2,-2.037305E-2,-5.1719572E-2,8.699148E-2,1.1153027E-1,6.7780054E-1,-7.4400324E-1,1.4095551E-1,8.542811E-2,-7.8272335E-3,-3.3958E-2,8.389547E-2,1.0546752E-1,-3.2069072E-1,5.0209653E-2,7.999014E-2,-4.4762008E-2,5.4439586E-2,-1.047643E-2,-3.777408E-1,-4.729985E-2,4.0593684E-2,-3.4455046E-2,6.336012E-2,-4.235071E-2,-4.225036E-2,1.4271866E-2,-3.1784683E-2,1.352593E-2],"categories":[],"categories_nodes":[],"categories_segments":[],"categories_sizes":[],"default_left":[0,0,0,0,0,0,0,0,0,0,0,0,0,0,0,0,0,0,0,0,0,0,0,0,0,0,0,0,0,0,0,0,0,0,0,0,0,0,0,0,0,0,0,0,0,0,0,0,0,0,0,0,0],"id":13,"left_children":[1,3,5,7,9,11,13,15,17,19,21,23,25,27,29,31,33,-1,-1,35,-1,-1,-1,37,-1,-1,-1,-1,39,41,43,45,-1,-1,-1,-1,47,49,-1,-1,-1,-1,-1,51,-1,-1,-1,-1,-1,-1,-1,-1,-1],"loss_changes":[1.5788024E1,4.857094E0,1.1673328E1,8.211424E0,3.9883356E0,2.160141E0,9.457325E0,6.7095675E0,7.102642E-1,7.5166535E0,1.2880459E0,3.4217548E0,4.150963E-2,6.9017286E0,5.6333566E0,3.666852E0,4.8338294E-2,0E0,0E0,3.7906432E0,0E0,0E0,0E0,3.2167008E0,0E0,0E0,0E0,0E0,1.1268268E1,1.6780604E0,3.8595915E-1,2.4738479E0,0E0,0E0,0E0,0E0,5.5468E0,2.0818439E0,0E0,0E0,0E0,0E0,0E0,1.0475407E0,0E0,0E0,0E0,0E0,0E0,0E0,0E0,0E0,0E0],"parents":[2147483647,0,0,1,1,2,2,3,3,4,4,5,5,6,6,7,7,8,8,9,9,10,10,11,11,12,12,13,13,14,14,15,15,16,16,19,19,23,23,28,28,29,29,30,30,31,31,36,36,37,37,43,43],"right_children":[2,4,6,8,10,12,14,16,18,20,22,24,26,28,30,32,34,-1,-1,36,-1,-1,-1,38,-1,-1,-1,-1,40,42,44,46,-1,-1,-1,-1,48,50,-1,-1,-1,-1,-1,52,-1,-1,-1,-1,-1,-1,-1,-1,-1],"split_conditions":[8.983534E4,8.723531E4,1.0452279E5,8.645493E4,8.656548E4,4.421024E1,1.0260255E5,9.147209E4,7.4806195E2,8.883407E4,8.7287586E4,9.457346E4,9.084272E4,1.0509148E5,3.5431458E1,8.552192E4,4.460845E1,-4.573984E-2,-6.411853E-3,3.6148495E1,-4.1790523E-2,1.7030498E-2,7.404308E-2,9.558898E4,-4.636522E-2,-2.037305E-2,-5.1719572E-2,8.699148E-2,1.0153901E5,7.980844E2,7.030738E2,8.507288E4,8.542811E-2,-7.8272335E-3,-3.3958E-2,8.389547E-2,8.924121E4,8.7584784E2,5.0209653E-2,7.999014E-2,-4.4762008E-2,5.4439586E-2,-1.047643E-2,1.0429042E5,-4.729985E-2,4.0593684E-2,-3.4455046E-2,6.336012E-2,-4.235071E-2,-4.225036E-2,1.4271866E-2,-3.1784683E-2,1.352593E-2],"split_indices":[2,6,7,3,2,5,6,7,8,6,6,3,3,7,5,6,5,0,0,5,0,0,0,6,0,0,0,0,3,4,8,3,0,0,0,0,7,8,0,0,0,0,0,6,0,0,0,0,0,0,0,0,0],"split_type":[0,0,0,0,0,0,0,0,0,0,0,0,0,0,0,0,0,0,0,0,0,0,0,0,0,0,0,0,0,0,0,0,0,0,0,0,0,0,0,0,0,0,0,0,0,0,0,0,0,0,0,0,0],"sum_hessian":[8.136865E1,3.2501003E1,4.8867653E1,1.4615073E1,1.788593E1,2.7132454E1,2.1735197E1,8.620036E0,5.9950376E0,8.222393E0,9.663535E0,1.1313066E1,1.5819388E1,9.712417E0,1.202278E1,6.276081E0,2.343955E0,4.03027E0,1.9647675E0,5.4583874E0,2.7640057E0,1.925513E0,7.738022E0,6.486374E0,4.826692E0,1.9244566E0,1.3894932E1,4.147817E0,5.5645995E0,2.9758408E0,9.04694E0,2.437574E0,3.838507E0,1.0217788E0,1.3221763E0,2.4156077E0,3.04278E0,4.791789E0,1.694585E0,2.0076776E0,3.5569222E0,1.8786485E0,1.0971923E0,4.236047E0,4.810893E0,1.3601208E0,1.0774533E0,1.2219522E0,1.8208276E0,2.3579736E0,2.4338152E0,3.0441246E0,1.1919223E0],"tree_param":{"num_deleted":"0","num_feature":"9","num_nodes":"53","size_leaf_vector":"1"}},{"base_weights":[3.1499512E-2,5.396577E-1,-3.1665605E-1,1.1460872E-1,8.58832E-1,-7.3893327E-1,2.1149173E-1,6.817426E-1,-6.9904536E-1,1.3355186E0,4.1332668E-1,-3.5912287E-1,-9.774979E-1,8.755529E-1,-3.5625097E-1,1.1485461E0,-5.565042E-1,-5.4208017E-3,-4.516421E-2,8.353623E-2,5.3502506E-1,-9.253508E-2,7.830114E-2,1.1036775E-1,-4.5847517E-2,-1.990874E-2,-5.1316638E-2,8.333143E-2,1.119414E-1,6.500072E-1,-7.303186E-1,1.3560237E-1,8.1304096E-2,-7.6472308E-3,-3.34451E-2,-1.2831385E-2,4.672472E-2,1.0679924E0,-4.9047615E-2,-3.122227E-1,4.7889452E-2,7.622132E-2,-4.418483E-2,5.2965384E-2,-1.063854E-2,-3.5268703E-1,-4.6487536E-2,3.914404E-2,-3.387996E-2,6.286543E-2,1.3214386E-2,-4.1627705E-2,1.367594E-2,-3.1685147E-2,1.8043004E-2],"categories":[],"categories_nodes":[],"categories_segments":[],"categories_sizes":[],"default_left":[0,0,0,0,0,0,0,0,0,0,0,0,0,0,0,0,0,0,0,0,0,0,0,0,0,0,0,0,0,0,0,0,0,0,0,0,0,0,0,0,0,0,0,0,0,0,0,0,0,0,0,0,0,0,0],"id":14,"left_children":[1,3,5,7,9,11,13,15,17,19,21,23,25,27,29,31,33,-1,-1,-1,35,37,-1,39,-1,-1,-1,-1,41,43,45,47,-1,-1,-1,-1,-1,49,-1,51,-1,-1,-1,-1,-1,53,-1,-1,-1,-1,-1,-1,-1,-1,-1],"loss_changes":[1.4539672E1,4.4315014E0,1.1045802E1,7.6171556E0,3.465209E0,2.1275988E0,8.783943E0,6.2024307E0,7.283189E-1,1.4379692E0,6.690974E0,3.2790875E0,5.0252914E-2,6.2445927E0,5.3021436E0,3.31841E0,4.777229E-2,0E0,0E0,0E0,1.5161806E0,1.0065492E1,0E0,2.978212E0,0E0,0E0,0E0,0E0,1.0473029E1,1.6395745E0,4.1167545E-1,2.3385437E0,0E0,0E0,0E0,0E0,0E0,3.1758785E-1,0E0,1.9790246E0,0E0,0E0,0E0,0E0,0E0,1.2322831E0,0E0,0E0,0E0,0E0,0E0,0E0,0E0,0E0,0E0],"parents":[2147483647,0,0,1,1,2,2,3,3,4,4,5,5,6,6,7,7,8,8,9,9,10,10,11,11,12,12,13,13,14,14,15,15,16,16,20,20,21,21,23,23,28,28,29,29,30,30,31,31,37,37,39,39,45,45],"right_children":[2,4,6,8,10,12,14,16,18,20,22,24,26,28,30,32,34,-1,-1,-1,36,38,-1,40,-1,-1,-1,-1,42,44,46,48,-1,-1,-1,-1,-1,50,-1,52,-1,-1,-1,-1,-1,54,-1,-1,-1,-1,-1,-1,-1,-1,-1],"split_conditions":[8.983534E4,8.723531E4,1.0452279E5,8.645493E4,8.924121E4,4.421024E1,1.0260255E5,9.147209E4,8.6978E4,8.732501E4,9.176161E4,9.457346E4,9.084272E4,1.0509148E5,3.5431458E1,8.552192E4,4.460845E1,-5.4208017E-3,-4.516421E-2,8.353623E-2,8.7316414E4,8.4756E4,7.830114E-2,9.558898E4,-4.5847517E-2,-1.990874E-2,-5.1316638E-2,8.333143E-2,1.0153901E5,1.030379E5,1.0490617E5,8.507288E4,8.1304096E-2,-7.6472308E-3,-3.34451E-2,-1.2831385E-2,4.672472E-2,3.194819E1,-4.9047615E-2,8.7584784E2,4.7889452E-2,7.622132E-2,-4.418483E-2,5.2965384E-2,-1.063854E-2,1.0481376E5,-4.6487536E-2,3.914404E-2,-3.387996E-2,6.286543E-2,1.3214386E-2,-4.1627705E-2,1.367594E-2,-3.1685147E-2,1.8043004E-2],"split_indices":[2,6,7,3,7,5,6,7,3,0,6,3,3,7,5,6,5,0,0,0,6,2,0,6,0,0,0,0,3,0,7,3,0,0,0,0,0,5,0,8,0,0,0,0,0,7,0,0,0,0,0,0,0,0,0],"split_type":[0,0,0,0,0,0,0,0,0,0,0,0,0,0,0,0,0,0,0,0,0,0,0,0,0,0,0,0,0,0,0,0,0,0,0,0,0,0,0,0,0,0,0,0,0,0,0,0,0,0,0,0,0,0,0],"sum_hessian":[8.021716E1,3.239064E1,4.7826523E1,1.4474208E1,1.7916431E1,2.6355247E1,2.1471275E1,8.62472E0,5.8494883E0,7.6902127E0,1.0226218E1,1.1134209E1,1.5221039E1,9.6463E0,1.1824975E1,6.316079E0,2.3086407E0,1.8963488E0,3.9531393E0,4.654166E0,3.0360465E0,7.746418E0,2.4797997E0,6.4813685E0,4.65284E0,1.8949498E0,1.3326089E1,4.157112E0,5.4891877E0,3.0046535E0,8.820321E0,2.4349823E0,3.8810968E0,1.017194E0,1.2914468E0,1.1381278E0,1.8979186E0,3.2711842E0,4.4752336E0,4.746136E0,1.7352327E0,2.0499184E0,3.4392695E0,1.8833896E0,1.121264E0,4.0050597E0,4.8152614E0,1.3765696E0,1.0584127E0,2.1907518E0,1.0804325E0,2.2902617E0,2.4558744E0,2.9537022E0,1.0513576E0],"tree_param":{"num_deleted":"0","num_feature":"9","num_nodes":"55","size_leaf_vector":"1"}},{"base_weights":[3.2592434E-2,5.1507175E-1,-3.1313097E-1,1.3618044E0,3.5863653E-1,-7.4506843E-1,2.0744804E-1,2.074676E-2,7.7637516E-2,1.9586931E-1,6.8438075E-2,-3.724068E-1,-9.682652E-1,8.4886944E-1,-3.4572566E-1,5.5012864E-1,-6.231201E-1,1.0745298E-1,-4.5338113E-2,-1.9453958E-2,-5.092401E-2,8.0050714E-2,1.1202549E-1,6.243034E-1,-7.1682626E-1,7.548665E-1,-3.8187854E-2,-1.5670295E-1,-4.5941997E-2,-3.645959E-2,5.435815E-1,7.278585E-2,-4.361854E-2,5.0952084E-2,-1.098655E-2,-3.4152365E-1,-4.59631E-2,4.513505E-2,-2.018358E-2,-3.9820086E-2,3.3548146E-2,5.4174043E-2,-3.305662E-2,-3.1180376E-2,1.8194955E-2],"categories":[],"categories_nodes":[],"categories_segments":[],"categories_sizes":[],"default_left":[0,0,0,0,0,0,0,0,0,0,0,0,0,0,0,0,0,0,0,0,0,0,0,0,0,0,0,0,0,0,0,0,0,0,0,0,0,0,0,0,0,0,0,0,0],"id":15,"left_children":[1,3,5,7,9,11,13,-1,-1,15,-1,17,19,21,23,25,27,29,-1,-1,-1,-1,31,33,35,37,-1,39,-1,-1,41,-1,-1,-1,-1,43,-1,-1,-1,-1,-1,-1,-1,-1,-1],"loss_changes":[1.34985E1,3.982791E0,1.0768279E1,2.4277973E-1,4.6395226E0,1.8032646E0,8.165764E0,0E0,0E0,8.139782E0,0E0,3.01281E0,5.8757782E-2,5.6749907E0,4.9917126E0,5.76568E0,1.0399034E0,2.9083772E0,0E0,0E0,0E0,0E0,9.750155E0,1.565774E0,4.151039E-1,3.309002E0,0E0,2.9360046E0,0E0,0E0,4.0323753E0,0E0,0E0,0E0,0E0,1.2126226E0,0E0,0E0,0E0,0E0,0E0,0E0,0E0,0E0,0E0],"parents":[2147483647,0,0,1,1,2,2,3,3,4,4,5,5,6,6,9,9,11,11,12,12,13,13,14,14,15,15,16,16,17,17,22,22,23,23,24,24,25,25,27,27,30,30,35,35],"right_children":[2,4,6,8,10,12,14,-1,-1,16,-1,18,20,22,24,26,28,30,-1,-1,-1,-1,32,34,36,38,-1,40,-1,-1,42,-1,-1,-1,-1,44,-1,-1,-1,-1,-1,-1,-1,-1,-1],"split_conditions":[9.008991E4,8.8835375E4,1.0452279E5,8.870929E4,9.593893E4,4.421024E1,1.0260255E5,2.074676E-2,7.7637516E-2,8.7291E4,6.8438075E-2,9.457346E4,9.084272E4,1.0509148E5,3.5431458E1,8.883407E4,8.774999E4,9.3158586E4,-4.5338113E-2,-1.9453958E-2,-5.092401E-2,8.0050714E-2,1.0153901E5,7.980844E2,1.0490617E5,6.015601E1,-3.8187854E-2,5.079471E1,-4.5941997E-2,-3.645959E-2,2.2328105E3,7.278585E-2,-4.361854E-2,5.0952084E-2,-1.098655E-2,1.0418458E5,-4.59631E-2,4.513505E-2,-2.018358E-2,-3.9820086E-2,3.3548146E-2,5.4174043E-2,-3.305662E-2,-3.1180376E-2,1.8194955E-2],"split_indices":[2,7,7,7,7,5,6,0,0,1,0,3,3,7,5,6,1,6,0,0,0,0,3,4,7,5,0,5,0,0,4,0,0,0,0,6,0,0,0,0,0,0,0,0,0],"split_type":[0,0,0,0,0,0,0,0,0,0,0,0,0,0,0,0,0,0,0,0,0,0,0,0,0,0,0,0,0,0,0,0,0,0,0,0,0,0,0,0,0,0,0,0,0],"sum_hessian":[7.895723E1,3.2755283E1,4.6201946E1,3.9063354E0,2.8848948E1,2.5015078E1,2.1186869E1,1.1880491E0,2.7182863E0,2.5873678E1,2.9752684E0,1.0369725E1,1.4645352E1,9.563343E0,1.1623526E1,1.829035E1,7.583329E0,5.884373E0,4.4853516E0,1.8663951E0,1.2778957E1,4.152161E0,5.4111824E0,3.027518E0,8.596007E0,1.6192589E1,2.0977597E0,3.5360615E0,4.047268E0,1.7860836E0,4.09829E0,2.0855858E0,3.3255963E0,1.9215165E0,1.1060015E0,3.9535174E0,4.64249E0,1.4556007E1,1.6365826E0,2.015819E0,1.5202425E0,2.8994963E0,1.1987934E0,2.9070349E0,1.0464824E0],"tree_param":{"num_deleted":"0","num_feature":"9","num_nodes":"45","size_leaf_vector":"1"}},{"base_weights":[3.1631388E-2,5.006603E-1,-3.0080813E-1,9.396131E-2,8.0602694E-1,-7.154105E-1,2.0341547E-1,6.139378E-1,-6.8070054E-1,2.9939148E-1,1.155061E0,-3.4341657E-1,-9.5916516E-1,8.241086E-1,-3.3552364E-1,1.0669056E0,-5.671612E-1,-5.053986E-3,-4.4798084E-2,8.5114044E-1,-4.0178806E-2,1.5035761E-2,1.3063738E0,9.584171E-2,-4.483619E-2,-1.900855E-2,-5.0540544E-2,7.709189E-2,1.1182556E-1,2.654865E-1,-4.7379952E-2,1.0960932E-1,7.609324E-2,-3.4281842E-2,-8.995234E-3,7.649211E-2,5.90381E-2,7.2809875E-2,6.0860646E-1,-3.1007597E-1,4.4516265E-2,6.9640785E-2,-4.3062337E-2,-3.3016568E-1,8.078735E-2,3.6197018E-2,-3.347029E-2,5.7384115E-2,-4.1725297E-2,5.5562006E-3,3.96943E-2,-4.0863153E-2,1.1831531E-2,2.4943303E-2,-4.2352915E-2],"categories":[],"categories_nodes":[],"categories_segments":[],"categories_sizes":[],"default_left":[0,0,0,0,0,0,0,0,0,0,0,0,0,0,0,0,0,0,0,0,0,0,0,0,0,0,0,0,0,0,0,0,0,0,0,0,0,0,0,0,0,0,0,0,0,0,0,0,0,0,0,0,0,0,0],"id":16,"left_children":[1,3,5,7,9,11,13,15,17,19,21,23,25,27,29,31,33,-1,-1,35,-1,-1,37,39,-1,-1,-1,-1,41,43,-1,45,-1,-1,-1,-1,47,-1,49,51,-1,-1,-1,53,-1,-1,-1,-1,-1,-1,-1,-1,-1,-1,-1],"loss_changes":[1.2453688E1,4.0355215E0,9.929285E0,6.5923057E0,2.9743128E0,2.0194674E0,7.6012154E0,5.7934027E0,7.3674965E-1,6.166215E0,9.990368E-1,2.9568622E0,6.700039E-2,5.1779284E0,4.8243885E0,3.0372114E0,2.9944658E-2,0E0,0E0,3.3989134E0,0E0,0E0,3.8725853E-2,2.6909838E0,0E0,0E0,0E0,0E0,9.091103E0,6.2062593E0,0E0,2.1345127E0,0E0,0E0,0E0,0E0,4.882915E0,0E0,2.1429634E-1,1.7732785E0,0E0,0E0,0E0,2.8756428E0,0E0,0E0,0E0,0E0,0E0,0E0,0E0,0E0,0E0,0E0,0E0],"parents":[2147483647,0,0,1,1,2,2,3,3,4,4,5,5,6,6,7,7,8,8,9,9,10,10,11,11,12,12,13,13,14,14,15,15,16,16,19,19,22,22,23,23,28,28,29,29,31,31,36,36,38,38,39,39,43,43],"right_children":[2,4,6,8,10,12,14,16,18,20,22,24,26,28,30,32,34,-1,-1,36,-1,-1,38,40,-1,-1,-1,-1,42,44,-1,46,-1,-1,-1,-1,48,-1,50,52,-1,-1,-1,54,-1,-1,-1,-1,-1,-1,-1,-1,-1,-1,-1],"split_conditions":[8.983534E4,8.723531E4,1.0452279E5,8.645493E4,8.656548E4,4.421024E1,1.0260255E5,9.147209E4,5.2032696E1,8.883407E4,8.7287586E4,9.457346E4,9.084272E4,1.0509148E5,1.0490617E5,8.552192E4,7.1363074E2,-5.053986E-3,-4.4798084E-2,3.6148495E1,-4.0178806E-2,1.5035761E-2,1.7314012E3,9.558898E4,-4.483619E-2,-1.900855E-2,-5.0540544E-2,7.709189E-2,1.0153901E5,1.0429042E5,-4.7379952E-2,8.507288E4,7.609324E-2,-3.4281842E-2,-8.995234E-3,7.649211E-2,8.924121E4,7.2809875E-2,8.986988E4,8.7584784E2,4.4516265E-2,6.9640785E-2,-4.3062337E-2,1.0471903E5,8.078735E-2,3.6197018E-2,-3.347029E-2,5.7384115E-2,-4.1725297E-2,5.5562006E-3,3.96943E-2,-4.0863153E-2,1.1831531E-2,2.4943303E-2,-4.2352915E-2],"split_indices":[2,6,7,3,2,5,6,7,5,6,6,3,3,7,7,6,4,0,0,5,0,0,4,6,0,0,0,0,3,6,0,3,0,0,0,0,7,0,0,8,0,0,0,7,0,0,0,0,0,0,0,0,0,0,0],"split_type":[0,0,0,0,0,0,0,0,0,0,0,0,0,0,0,0,0,0,0,0,0,0,0,0,0,0,0,0,0,0,0,0,0,0,0,0,0,0,0,0,0,0,0,0,0,0,0,0,0,0,0,0,0,0,0],"sum_hessian":[7.79045E1,3.2103966E1,4.5800537E1,1.4328467E1,1.77755E1,2.490409E1,2.0896446E1,8.69775E0,5.630717E0,8.008559E0,9.76694E0,1.0812302E1,1.4091788E1,9.465711E0,1.1430737E1,6.3565927E0,2.341158E0,1.9228204E0,3.7078962E0,5.490371E0,2.5181878E0,1.9190327E0,7.8479075E0,6.488227E0,4.3240743E0,1.8387622E0,1.2253027E1,4.1347275E0,5.330983E0,6.05321E0,5.377527E0,2.4475448E0,3.9090478E0,1.2027084E0,1.1384494E0,2.4552531E0,3.035118E0,5.565872E0,2.2820354E0,4.69776E0,1.7904665E0,2.1151538E0,3.2158294E0,4.7245207E0,1.3286891E0,1.407941E0,1.0396038E0,1.2399796E0,1.7951384E0,1.053395E0,1.2286402E0,2.180239E0,2.5175214E0,1.8278118E0,2.8967087E0],"tree_param":{"num_deleted":"0","num_feature":"9","num_nodes":"55","size_leaf_vector":"1"}},{"base_weights":[3.253146E-2,4.8374286E-1,-2.9252726E-1,8.898002E-2,7.7784824E-1,-7.0310324E-1,2.0154919E-1,5.884841E-1,-6.678456E-1,1.1948236E0,3.7534893E-1,-3.3387512E-1,-9.501783E-1,8.010494E-1,-3.2453704E-1,1.0236499E0,-5.572291E-1,-4.4174213E-2,-4.116058E-3,7.568638E-2,4.5203975E-1,7.614394E-1,-4.2801537E-2,9.2954874E-2,-4.434104E-2,-1.8572357E-2,-5.0165173E-2,7.44082E-2,1.11377895E-1,2.6265028E-1,-4.6862546E-2,1.04955E-1,7.291395E-2,-8.111717E-3,-3.3224985E-2,-1.3065261E-2,4.072948E-2,-3.2342084E-2,1.1065152E0,-3.022328E-1,4.2557854E-2,6.576525E-2,-4.3682117E-2,-3.2110995E-1,7.776084E-2,3.495639E-2,-3.292317E-2,6.743007E-2,2.1303134E-2,-4.026922E-2,1.1347418E-2,2.3962043E-2,-4.1789535E-2],"categories":[],"categories_nodes":[],"categories_segments":[],"categories_sizes":[],"default_left":[0,0,0,0,0,0,0,0,0,0,0,0,0,0,0,0,0,0,0,0,0,0,0,0,0,0,0,0,0,0,0,0,0,0,0,0,0,0,0,0,0,0,0,0,0,0,0,0,0,0,0,0,0],"id":17,"left_children":[1,3,5,7,9,11,13,15,17,19,21,23,25,27,29,31,33,-1,-1,-1,35,37,-1,39,-1,-1,-1,-1,41,43,-1,45,-1,-1,-1,-1,-1,-1,47,49,-1,-1,-1,51,-1,-1,-1,-1,-1,-1,-1,-1,-1],"loss_changes":[1.1527482E1,3.7486653E0,9.421537E0,6.127318E0,2.6925497E0,1.9823151E0,7.0531178E0,5.391283E0,7.4788284E-1,1.3846836E0,5.8724313E0,2.8313255E0,7.496929E-2,4.741497E0,4.6295476E0,2.7857833E0,3.240931E-2,0E0,0E0,0E0,1.2601075E0,5.035495E0,0E0,2.497991E0,0E0,0E0,0E0,0E0,8.55972E0,5.783114E0,0E0,2.021336E0,0E0,0E0,0E0,0E0,0E0,0E0,6.622772E-1,1.6881971E0,0E0,0E0,0E0,2.7290533E0,0E0,0E0,0E0,0E0,0E0,0E0,0E0,0E0,0E0],"parents":[2147483647,0,0,1,1,2,2,3,3,4,4,5,5,6,6,7,7,8,8,9,9,10,10,11,11,12,12,13,13,14,14,15,15,16,16,20,20,21,21,23,23,28,28,29,29,31,31,38,38,39,39,43,43],"right_children":[2,4,6,8,10,12,14,16,18,20,22,24,26,28,30,32,34,-1,-1,-1,36,38,-1,40,-1,-1,-1,-1,42,44,-1,46,-1,-1,-1,-1,-1,-1,48,50,-1,-1,-1,52,-1,-1,-1,-1,-1,-1,-1,-1,-1],"split_conditions":[8.983534E4,8.723531E4,1.0452279E5,8.645493E4,8.924121E4,4.421024E1,1.0260255E5,9.147209E4,7.4806195E2,8.732501E4,3.700287E1,9.457346E4,9.084272E4,1.0509148E5,1.0490617E5,8.552192E4,4.460845E1,-4.4174213E-2,-4.116058E-3,7.568638E-2,8.7316414E4,6.7333514E2,-4.2801537E-2,9.558898E4,-4.434104E-2,-1.8572357E-2,-5.0165173E-2,7.44082E-2,4.3611794E1,1.0429042E5,-4.6862546E-2,8.507288E4,7.291395E-2,-8.111717E-3,-3.3224985E-2,-1.3065261E-2,4.072948E-2,-3.2342084E-2,1.00833105E3,8.7584784E2,4.2557854E-2,6.576525E-2,-4.3682117E-2,1.0471903E5,7.776084E-2,3.495639E-2,-3.292317E-2,6.743007E-2,2.1303134E-2,-4.026922E-2,1.1347418E-2,2.3962043E-2,-4.1789535E-2],"split_indices":[2,6,7,3,7,5,6,7,8,0,5,3,3,7,7,6,5,0,0,0,6,8,0,6,0,0,0,0,5,6,0,3,0,0,0,0,0,0,8,8,0,0,0,7,0,0,0,0,0,0,0,0,0],"split_type":[0,0,0,0,0,0,0,0,0,0,0,0,0,0,0,0,0,0,0,0,0,0,0,0,0,0,0,0,0,0,0,0,0,0,0,0,0,0,0,0,0,0,0,0,0,0,0,0,0,0,0,0,0],"sum_hessian":[7.662976E1,3.1883862E1,4.4745903E1,1.4168603E1,1.7715258E1,2.4206944E1,2.053896E1,8.669303E0,5.4992995E0,7.7342896E0,9.980968E0,1.0647166E1,1.3559777E1,9.35539E0,1.1183569E1,6.3601313E0,2.3091717E0,3.6472158E0,1.8520837E0,4.684958E0,3.049332E0,7.8890495E0,2.0919192E0,6.4783144E0,4.1688514E0,1.8120216E0,1.1747756E1,4.106414E0,5.248976E0,6.002487E0,5.181082E0,2.4413087E0,3.9188228E0,1.0297567E0,1.2794151E0,1.121652E0,1.9276799E0,1.3805257E0,6.508524E0,4.65397E0,1.8243446E0,2.2111373E0,3.0378387E0,4.6527452E0,1.349742E0,1.4201851E0,1.0211238E0,4.0763526E0,2.432171E0,2.118106E0,2.535864E0,1.8479544E0,2.804791E0],"tree_param":{"num_deleted":"0","num_feature":"9","num_nodes":"53","size_leaf_vector":"1"}},{"base_weights":[3.245311E-2,4.5934373E-1,-2.8961802E-1,1.2298334E0,3.144869E-1,-7.101394E-1,1.9934402E-1,1.8066557E-2,7.064088E-2,1.6145866E-1,6.2408894E-2,-3.47212E-1,-9.412867E-1,7.779867E-1,-3.1406674E-1,4.866094E-1,-6.120242E-1,8.95048E-2,-4.3852013E-2,-1.8145224E-2,-4.9796917E-2,7.1961366E-2,1.100115E-1,2.5963205E-1,-4.6353996E-2,6.710419E-1,-3.7087534E-2,-1.6270122E-1,-4.5001626E-2,-3.399261E-1,4.0715724E-2,6.4650424E-2,-4.2120866E-2,-3.124263E-1,7.497104E-2,4.0188875E-2,-1.94666E-2,-3.9152868E-2,3.1379122E-2,1.7230412E-2,-4.0535714E-2,2.302549E-2,-4.123616E-2],"categories":[],"categories_nodes":[],"categories_segments":[],"categories_sizes":[],"default_left":[0,0,0,0,0,0,0,0,0,0,0,0,0,0,0,0,0,0,0,0,0,0,0,0,0,0,0,0,0,0,0,0,0,0,0,0,0,0,0,0,0,0,0],"id":18,"left_children":[1,3,5,7,9,11,13,-1,-1,15,-1,17,19,21,23,25,27,29,-1,-1,-1,-1,31,33,-1,35,-1,37,-1,39,-1,-1,-1,41,-1,-1,-1,-1,-1,-1,-1,-1,-1],"loss_changes":[1.0633849E1,3.3220558E0,9.218737E0,2.7063942E-1,3.9870014E0,1.6825857E0,6.540264E0,0E0,0E0,6.9211216E0,0E0,2.6015863E0,8.264351E-2,4.3694296E0,4.4403996E0,4.824444E0,9.19518E-1,2.4197302E0,0E0,0E0,0E0,0E0,8.054935E0,5.3975124E0,0E0,2.7239861E0,0E0,2.6672702E0,0E0,1.900018E0,0E0,0E0,0E0,2.5905578E0,0E0,0E0,0E0,0E0,0E0,0E0,0E0,0E0,0E0],"parents":[2147483647,0,0,1,1,2,2,3,3,4,4,5,5,6,6,9,9,11,11,12,12,13,13,14,14,15,15,16,16,17,17,22,22,23,23,25,25,27,27,29,29,33,33],"right_children":[2,4,6,8,10,12,14,-1,-1,16,-1,18,20,22,24,26,28,30,-1,-1,-1,-1,32,34,-1,36,-1,38,-1,40,-1,-1,-1,42,-1,-1,-1,-1,-1,-1,-1,-1,-1],"split_conditions":[9.008991E4,8.8835375E4,1.0452279E5,8.870929E4,9.593893E4,4.421024E1,1.0260255E5,1.8066557E-2,7.064088E-2,8.7291E4,6.2408894E-2,9.457346E4,9.084272E4,1.0509148E5,1.0490617E5,8.883407E4,8.774999E4,9.558898E4,-4.3852013E-2,-1.8145224E-2,-4.9796917E-2,7.1961366E-2,1.0153901E5,1.0429042E5,-4.6353996E-2,6.015601E1,-3.7087534E-2,5.079471E1,-4.5001626E-2,9.162675E4,4.0715724E-2,6.4650424E-2,-4.2120866E-2,1.0471903E5,7.497104E-2,4.0188875E-2,-1.94666E-2,-3.9152868E-2,3.1379122E-2,1.7230412E-2,-4.0535714E-2,2.302549E-2,-4.123616E-2],"split_indices":[2,7,7,7,7,5,6,0,0,1,0,3,3,7,7,6,1,6,0,0,0,0,3,6,0,5,0,5,0,1,0,0,0,7,0,0,0,0,0,0,0,0,0],"split_type":[0,0,0,0,0,0,0,0,0,0,0,0,0,0,0,0,0,0,0,0,0,0,0,0,0,0,0,0,0,0,0,0,0,0,0,0,0,0,0,0,0,0,0],"sum_hessian":[7.53756E1,3.2229996E1,4.3145607E1,3.9151933E0,2.83148E1,2.2953016E1,2.0192593E1,1.1990016E0,2.7161918E0,2.5335361E1,2.9794393E0,9.904287E0,1.3048728E1,9.250937E0,1.0941654E1,1.8098246E1,7.2371154E0,5.884769E0,4.0195184E0,1.7861449E0,1.1262583E1,4.068673E0,5.1822643E0,5.949851E0,4.991803E0,1.6130096E1,1.9681492E0,3.4381542E0,3.798961E0,4.028815E0,1.8559545E0,2.1518698E0,3.0303946E0,4.5831246E0,1.3667266E0,1.455066E1,1.5794374E0,1.9312822E0,1.506872E0,1.7509379E0,2.2778766E0,1.8671378E0,2.7159867E0],"tree_param":{"num_deleted":"0","num_feature":"9","num_nodes":"43","size_leaf_vector":"1"}},{"base_weights":[3.2099083E-2,4.4733438E-1,-2.7750406E-1,7.060734E-2,7.277421E-1,-6.7989784E-1,1.9737709E-1,4.2713064E-1,-4.3186843E-2,1.1217763E0,3.4493184E-1,-3.1763357E-1,-9.324739E-1,7.57836E-1,-3.0408046E-1,6.977184E-1,-3.6078263E-2,7.126772E-2,4.1576162E-1,7.222293E-1,-4.252232E-2,8.459308E-2,-4.336853E-2,-1.7727004E-2,-4.943485E-2,6.971964E-2,1.0922496E-1,2.5646126E-1,-4.5853414E-2,1.0382683E0,-8.7453954E-2,-1.24402335E-2,3.7371956E-2,-3.1345706E-2,1.0413822E0,-3.6263924E-2,4.0518698E-1,6.1147388E-2,-4.280957E-2,-3.040982E-1,7.2391726E-2,5.9734564E-2,1.7765885E-2,2.8501019E-2,-2.6889166E-2,6.3109614E-2,2.0565776E-2,4.9146883E-2,-9.164995E-3,2.2131074E-2,-4.069216E-2],"categories":[],"categories_nodes":[],"categories_segments":[],"categories_sizes":[],"default_left":[0,0,0,0,0,0,0,0,0,0,0,0,0,0,0,0,0,0,0,0,0,0,0,0,0,0,0,0,0,0,0,0,0,0,0,0,0,0,0,0,0,0,0,0,0,0,0,0,0,0,0],"id":19,"left_children":[1,3,5,7,9,11,13,15,-1,17,19,21,23,25,27,29,-1,-1,31,33,-1,35,-1,-1,-1,-1,37,39,-1,41,43,-1,-1,-1,45,-1,47,-1,-1,49,-1,-1,-1,-1,-1,-1,-1,-1,-1,-1,-1],"loss_changes":[9.795483E0,3.3834996E0,8.487371E0,5.3597894E0,2.40866E0,1.8895226E0,6.0834513E0,4.082117E0,0E0,1.2696753E0,5.5052953E0,2.5785766E0,9.001255E-2,4.0263033E0,4.257123E0,2.7184086E0,0E0,0E0,1.0730507E0,4.4349666E0,0E0,2.2291663E0,0E0,0E0,0E0,0E0,7.603543E0,5.0453854E0,0E0,3.1601858E-1,1.4598099E0,0E0,0E0,0E0,5.2137184E-1,0E0,2.2138703E0,0E0,0E0,2.4596772E0,0E0,0E0,0E0,0E0,0E0,0E0,0E0,0E0,0E0,0E0,0E0],"parents":[2147483647,0,0,1,1,2,2,3,3,4,4,5,5,6,6,7,7,9,9,10,10,11,11,12,12,13,13,14,14,15,15,18,18,19,19,21,21,26,26,27,27,29,29,30,30,34,34,36,36,39,39],"right_children":[2,4,6,8,10,12,14,16,-1,18,20,22,24,26,28,30,-1,-1,32,34,-1,36,-1,-1,-1,-1,38,40,-1,42,44,-1,-1,-1,46,-1,48,-1,-1,50,-1,-1,-1,-1,-1,-1,-1,-1,-1,-1,-1],"split_conditions":[8.983534E4,8.723531E4,1.0452279E5,8.6978E4,8.924121E4,4.421024E1,1.0260255E5,9.7732983E2,-4.3186843E-2,8.732501E4,3.700287E1,9.457346E4,9.084272E4,1.0509148E5,1.0490617E5,5.381615E1,-3.6078263E-2,7.126772E-2,8.7316414E4,6.7333514E2,-4.252232E-2,9.133218E4,-4.336853E-2,-1.7727004E-2,-4.943485E-2,6.971964E-2,4.3611794E1,1.0429042E5,-4.5853414E-2,8.0311554E2,6.0026337E2,-1.24402335E-2,3.7371956E-2,-3.1345706E-2,1.00833105E3,-3.6263924E-2,1.7834084E3,6.1147388E-2,-4.280957E-2,1.0471903E5,7.2391726E-2,5.9734564E-2,1.7765885E-2,2.8501019E-2,-2.6889166E-2,6.3109614E-2,2.0565776E-2,4.9146883E-2,-9.164995E-3,2.2131074E-2,-4.069216E-2],"split_indices":[2,6,7,3,7,5,6,8,0,0,5,3,3,7,7,5,0,0,6,8,0,1,0,0,0,0,5,6,0,4,4,0,0,0,8,0,4,0,0,7,0,0,0,0,0,0,0,0,0,0,0],"split_type":[0,0,0,0,0,0,0,0,0,0,0,0,0,0,0,0,0,0,0,0,0,0,0,0,0,0,0,0,0,0,0,0,0,0,0,0,0,0,0,0,0,0,0,0,0,0,0,0,0,0,0],"sum_hessian":[7.422934E1,3.151586E1,4.271348E1,1.3982376E1,1.7533484E1,2.2887705E1,1.9825777E1,1.0513523E1,3.4688528E0,7.6888375E0,9.844646E0,1.0329665E1,1.255804E1,9.120687E0,1.07050905E1,8.82686E0,1.6866626E0,4.664349E0,3.0244884E0,7.7836933E0,2.0609534E0,6.4537587E0,3.8759072E0,1.7611035E0,1.0796936E1,4.022818E0,5.0978684E0,5.8955626E0,4.8095284E0,5.9317565E0,2.8951042E0,1.0901222E0,1.9343662E0,1.3045802E0,6.4791126E0,1.4722705E0,4.981488E0,2.2432525E0,2.854616E0,4.515636E0,1.3799264E0,4.216664E0,1.7150928E0,1.068835E0,1.8262691E0,4.0548143E0,2.4242985E0,2.1754484E0,2.8060396E0,1.8854061E0,2.63023E0],"tree_param":{"num_deleted":"0","num_feature":"9","num_nodes":"51","size_leaf_vector":"1"}},{"base_weights":[3.18765E-2,4.3129444E-1,-2.7031574E-1,6.7408554E-2,7.007496E-1,-6.678762E-1,1.9508196E-1,4.1000143E-1,-4.2866934E-2,9.347197E-1,1.4249343E-1,-3.092646E-1,-9.237248E-1,7.027835E-1,-3.2832813E-1,7.963292E-1,-2.8728947E-1,6.506964E-2,5.600643E-1,-4.269115E-2,6.4605795E-2,8.0493204E-2,-4.2890094E-2,-1.7317556E-2,-4.907813E-2,6.847474E-2,3.895762E-2,4.654787E-1,-8.159443E-1,1.1204696E0,-1.7966041E-2,3.0824704E-2,-3.4346357E-2,-4.023282E-2,1.0026221E0,-2.8984398E-1,3.8241696E-2,6.033761E-2,-4.2356517E-2,5.934864E-2,-3.4535866E-2,-4.6457488E-2,-3.8998127E-3,7.05495E-2,2.1461306E-2,6.948667E-2,2.1713628E-2,-3.955875E-2,1.1124336E-2],"categories":[],"categories_nodes":[],"categories_segments":[],"categories_sizes":[],"default_left":[0,0,0,0,0,0,0,0,0,0,0,0,0,0,0,0,0,0,0,0,0,0,0,0,0,0,0,0,0,0,0,0,0,0,0,0,0,0,0,0,0,0,0,0,0,0,0,0,0],"id":20,"left_children":[1,3,5,7,9,11,13,15,-1,17,19,21,23,25,27,29,31,-1,33,-1,-1,35,-1,-1,-1,-1,37,39,41,43,-1,-1,-1,-1,45,47,-1,-1,-1,-1,-1,-1,-1,-1,-1,-1,-1,-1,-1],"loss_changes":[9.052128E0,3.1169744E0,8.041777E0,5.0517864E0,2.2746878E0,1.8508549E0,5.671141E0,3.3272414E0,0E0,1.0310097E0,8.690619E0,2.4634151E0,9.7065926E-2,4.6870513E0,4.545522E0,3.2744336E0,2.170023E0,0E0,5.6939707E0,0E0,0E0,2.112683E0,0E0,0E0,0E0,0E0,7.6409802E0,4.7672577E0,5.1482105E-1,6.454835E-1,0E0,0E0,0E0,0E0,8.3879757E-1,1.6057975E0,0E0,0E0,0E0,0E0,0E0,0E0,0E0,0E0,0E0,0E0,0E0,0E0,0E0],"parents":[2147483647,0,0,1,1,2,2,3,3,4,4,5,5,6,6,7,7,9,9,10,10,11,11,12,12,13,13,14,14,15,15,16,16,18,18,21,21,26,26,27,27,28,28,29,29,34,34,35,35],"right_children":[2,4,6,8,10,12,14,16,-1,18,20,22,24,26,28,30,32,-1,34,-1,-1,36,-1,-1,-1,-1,38,40,42,44,-1,-1,-1,-1,46,48,-1,-1,-1,-1,-1,-1,-1,-1,-1,-1,-1,-1,-1],"split_conditions":[8.983534E4,8.723531E4,1.0452279E5,8.651036E4,8.883407E4,4.421024E1,1.0269472E5,5.381615E1,-4.2866934E-2,6.921012E2,9.176161E4,9.457346E4,9.084272E4,1.0509148E5,1.0311265E5,9.147209E4,5.907749E2,6.506964E-2,8.751678E4,-4.269115E-2,6.4605795E-2,9.558898E4,-4.2890094E-2,-1.7317556E-2,-4.907813E-2,6.847474E-2,1.0153901E5,7.73043E2,1.06525E5,4.9757477E1,-1.7966041E-2,3.0824704E-2,-3.4346357E-2,-4.023282E-2,3.6148495E1,8.7584784E2,3.8241696E-2,6.033761E-2,-4.2356517E-2,5.934864E-2,-3.4535866E-2,-4.6457488E-2,-3.8998127E-3,7.05495E-2,2.1461306E-2,6.948667E-2,2.1713628E-2,-3.955875E-2,1.1124336E-2],"split_indices":[2,6,7,6,6,5,6,5,0,8,6,3,3,7,0,7,4,0,6,0,0,6,0,0,0,0,3,8,1,5,0,0,0,0,5,8,0,0,0,0,0,0,0,0,0,0,0,0,0],"split_type":[0,0,0,0,0,0,0,0,0,0,0,0,0,0,0,0,0,0,0,0,0,0,0,0,0,0,0,0,0,0,0,0,0,0,0,0,0,0,0,0,0,0,0,0,0,0,0,0,0],"sum_hessian":[7.3030396E1,3.127109E1,4.1759304E1,1.3836179E1,1.743491E1,2.228637E1,1.9472933E1,1.0502086E1,3.3340936E0,1.181062E1,5.6242905E0,1.0199276E1,1.2087093E1,9.710836E0,9.762097E0,6.6665244E0,3.835561E0,4.7187915E0,7.0918283E0,3.1508868E0,2.4734035E0,6.4614286E0,3.7378469E0,1.7368704E0,1.0350224E1,4.314525E0,5.3963113E0,3.7320185E0,6.030079E0,5.2300305E0,1.4364939E0,1.009634E0,2.825927E0,1.5362579E0,5.5555706E0,4.566622E0,1.8948066E0,2.1719558E0,3.2243555E0,2.2816162E0,1.4504021E0,5.0034256E0,1.026653E0,2.949261E0,2.2807693E0,2.445022E0,3.1105485E0,2.0330021E0,2.5336199E0],"tree_param":{"num_deleted":"0","num_feature":"9","num_nodes":"49","size_leaf_vector":"1"}},{"base_weights":[3.2212015E-2,4.1366205E-1,-2.6906526E-1,1.1243078E0,2.7845097E-1,-6.7578197E-1,1.9125469E-1,1.5316154E-2,6.5362215E-2,1.3576311E-1,5.690499E-2,-3.228E-1,-9.150258E-1,6.8507254E-1,-3.2081893E-1,4.3121707E-1,-5.947526E-1,7.6272756E-2,-4.241625E-2,-1.6916728E-2,-4.8725963E-2,6.629116E-2,4.0056266E-2,4.487463E-1,-8.041569E-1,5.981149E-1,-3.5987165E-2,-1.6572198E-1,-4.374468E-2,-3.412044E-2,4.2999142E-1,5.714885E-2,-4.302734E-2,-3.412404E-2,5.7217937E-2,-4.5954604E-2,-3.8070169E-3,6.254971E-2,1.7708896E-2,-3.8234312E-2,2.8988764E-2,4.57752E-2,-3.354254E-2],"categories":[],"categories_nodes":[],"categories_segments":[],"categories_sizes":[],"default_left":[0,0,0,0,0,0,0,0,0,0,0,0,0,0,0,0,0,0,0,0,0,0,0,0,0,0,0,0,0,0,0,0,0,0,0,0,0,0,0,0,0,0,0],"id":21,"left_children":[1,3,5,7,9,11,13,-1,-1,15,-1,17,19,21,23,25,27,29,-1,-1,-1,-1,31,33,35,37,-1,39,-1,-1,41,-1,-1,-1,-1,-1,-1,-1,-1,-1,-1,-1,-1],"loss_changes":[8.468684E0,2.808353E0,7.849595E0,3.2734776E-1,3.3562613E0,1.5721035E0,5.30834E0,0E0,0E0,5.7996516E0,0E0,2.2622666E0,1.0379505E-1,4.312566E0,4.2887664E0,4.0545855E0,7.9444146E-1,2.1379356E0,0E0,0E0,0E0,0E0,7.236552E0,4.4917016E0,5.0272226E-1,2.2680697E0,0E0,2.3729253E0,0E0,0E0,3.447497E0,0E0,0E0,0E0,0E0,0E0,0E0,0E0,0E0,0E0,0E0,0E0,0E0],"parents":[2147483647,0,0,1,1,2,2,3,3,4,4,5,5,6,6,9,9,11,11,12,12,13,13,14,14,15,15,16,16,17,17,22,22,23,23,24,24,25,25,27,27,30,30],"right_children":[2,4,6,8,10,12,14,-1,-1,16,-1,18,20,22,24,26,28,30,-1,-1,-1,-1,32,34,36,38,-1,40,-1,-1,42,-1,-1,-1,-1,-1,-1,-1,-1,-1,-1,-1,-1],"split_conditions":[9.008991E4,8.8835375E4,1.0452279E5,8.870929E4,9.593893E4,4.421024E1,1.0269472E5,1.5316154E-2,6.5362215E-2,8.7291E4,5.690499E-2,9.457346E4,9.084272E4,1.0509148E5,1.0311265E5,8.883407E4,8.774999E4,9.3158586E4,-4.241625E-2,-1.6916728E-2,-4.8725963E-2,6.629116E-2,4.3611794E1,1.0363438E5,1.06525E5,4.2627728E1,-3.5987165E-2,5.079471E1,-4.374468E-2,-3.412044E-2,2.2328105E3,5.714885E-2,-4.302734E-2,-3.412404E-2,5.7217937E-2,-4.5954604E-2,-3.8070169E-3,6.254971E-2,1.7708896E-2,-3.8234312E-2,2.8988764E-2,4.57752E-2,-3.354254E-2],"split_indices":[2,7,7,7,7,5,6,0,0,1,0,3,3,7,0,6,1,6,0,0,0,0,5,6,1,5,0,5,0,0,4,0,0,0,0,0,0,0,0,0,0,0,0],"split_type":[0,0,0,0,0,0,0,0,0,0,0,0,0,0,0,0,0,0,0,0,0,0,0,0,0,0,0,0,0,0,0,0,0,0,0,0,0,0,0,0,0,0,0],"sum_hessian":[7.172207E1,3.1485258E1,4.0236813E1,3.8636084E0,2.762165E1,2.1113693E1,1.912312E1,1.1949542E0,2.6686542E0,2.4682655E1,2.9389944E0,9.47842E0,1.1635273E1,9.563106E0,9.560015E0,1.7866383E1,6.8162737E0,5.8732557E0,3.6051648E0,1.7134186E0,9.921855E0,4.2679214E0,5.295184E0,3.715618E0,5.8443966E0,1.6023228E1,1.8431536E0,3.3213124E0,3.4949615E0,1.572087E0,4.3011684E0,2.259262E0,3.035922E0,1.4219978E0,2.29362E0,4.820848E0,1.0235485E0,3.2354472E0,1.2787782E1,1.8273787E0,1.4939337E0,3.101605E0,1.1995636E0],"tree_param":{"num_deleted":"0","num_feature":"9","num_nodes":"43","size_leaf_vector":"1"}},{"base_weights":[3.1440575E-2,4.0539524E-1,-2.59263E-1,5.9508853E-2,6.625352E-1,-6.467563E-1,1.871904E-1,3.830005E-1,-4.1949473E-2,1.0349263E0,2.9739797E-1,-2.9766133E-1,-9.063644E-1,7.0182425E-1,-2.8126913E-1,6.8140584E-1,-5.6336224E-1,6.616374E-2,3.695052E-1,6.663806E-1,-4.221147E-2,6.765883E-2,-4.19466E-2,-1.6524374E-2,-4.8377614E-2,6.394523E-2,1.0566238E-1,2.4620886E-1,-4.454306E-2,1.0457582E0,-8.7017834E-2,-3.406187E-2,-8.829544E-3,-1.2256428E-2,3.3814143E-2,-2.9795373E-2,9.526954E-1,-2.8857103E-1,3.5790343E-2,5.6573637E-2,-4.0315624E-2,-2.9042724E-1,6.709663E-2,6.250921E-2,1.5610605E-2,-3.380235E-2,1.9794077E-2,6.5261625E-2,2.5657585E-2,-3.885056E-2,9.626573E-3,1.9807568E-2,-3.945011E-2],"categories":[],"categories_nodes":[],"categories_segments":[],"categories_sizes":[],"default_left":[0,0,0,0,0,0,0,0,0,0,0,0,0,0,0,0,0,0,0,0,0,0,0,0,0,0,0,0,0,0,0,0,0,0,0,0,0,0,0,0,0,0,0,0,0,0,0,0,0,0,0,0,0],"id":22,"left_children":[1,3,5,7,9,11,13,15,-1,17,19,21,23,25,27,29,31,-1,33,35,-1,37,-1,-1,-1,-1,39,41,-1,43,45,-1,-1,-1,-1,-1,47,49,-1,-1,-1,51,-1,-1,-1,-1,-1,-1,-1,-1,-1,-1,-1],"loss_changes":[7.892942E0,2.7820468E0,7.199403E0,4.572428E0,2.1529427E0,1.7356901E0,4.9677663E0,3.6146946E0,0E0,1.1527681E0,5.0027766E0,2.2173898E0,1.101923E-1,3.2071328E0,3.779533E0,2.6529393E0,2.9694915E-2,0E0,9.151354E-1,3.6487312E0,0E0,1.9264787E0,0E0,0E0,0E0,0E0,6.4024115E0,4.340721E0,0E0,5.520191E-1,1.3674037E0,0E0,0E0,0E0,0E0,0E0,4.665985E-1,1.4466848E0,0E0,0E0,0E0,2.1379125E0,0E0,0E0,0E0,0E0,0E0,0E0,0E0,0E0,0E0,0E0,0E0],"parents":[2147483647,0,0,1,1,2,2,3,3,4,4,5,5,6,6,7,7,9,9,10,10,11,11,12,12,13,13,14,14,15,15,16,16,18,18,19,19,21,21,26,26,27,27,29,29,30,30,36,36,37,37,41,41],"right_children":[2,4,6,8,10,12,14,16,-1,18,20,22,24,26,28,30,32,-1,34,36,-1,38,-1,-1,-1,-1,40,42,-1,44,46,-1,-1,-1,-1,-1,48,50,-1,-1,-1,52,-1,-1,-1,-1,-1,-1,-1,-1,-1,-1,-1],"split_conditions":[8.983534E4,8.723531E4,1.0452279E5,8.6978E4,8.924121E4,4.421024E1,1.0260255E5,9.147209E4,-4.1949473E-2,8.732501E4,3.700287E1,9.457346E4,9.084272E4,1.0509148E5,1.0490617E5,5.381615E1,7.1363074E2,6.616374E-2,8.7316414E4,6.7333514E2,-4.221147E-2,9.558898E4,-4.19466E-2,-1.6524374E-2,-4.8377614E-2,6.394523E-2,1.0153901E5,1.0429042E5,-4.454306E-2,8.0311554E2,8.552192E4,-3.406187E-2,-8.829544E-3,-1.2256428E-2,3.3814143E-2,-2.9795373E-2,8.883407E4,8.7584784E2,3.5790343E-2,5.6573637E-2,-4.0315624E-2,1.0471903E5,6.709663E-2,6.250921E-2,1.5610605E-2,-3.380235E-2,1.9794077E-2,6.5261625E-2,2.5657585E-2,-3.885056E-2,9.626573E-3,1.9807568E-2,-3.945011E-2],"split_indices":[2,6,7,3,7,5,6,7,0,0,5,3,3,7,7,5,4,0,6,8,0,6,0,0,0,0,3,6,0,4,6,0,0,0,0,0,6,8,0,0,0,7,0,0,0,0,0,0,0,0,0,0,0],"split_type":[0,0,0,0,0,0,0,0,0,0,0,0,0,0,0,0,0,0,0,0,0,0,0,0,0,0,0,0,0,0,0,0,0,0,0,0,0,0,0,0,0,0,0,0,0,0,0,0,0,0,0,0,0],"sum_hessian":[7.063868E1,3.0722895E1,3.9915787E1,1.3625828E1,1.7097067E1,2.112873E1,1.8787054E1,1.04405775E1,3.18525E0,7.5563025E0,9.540765E0,9.926775E0,1.1201955E1,8.714951E0,1.0072104E1,8.150538E0,2.290039E0,4.5821013E0,2.974201E0,7.524937E0,2.0158277E0,6.449088E0,3.4776871E0,1.6907219E0,9.511233E0,3.8464174E0,4.868533E0,5.7193117E0,4.3527927E0,5.2841268E0,2.866412E0,1.1716232E0,1.118416E0,1.0571473E0,1.9170537E0,1.1913373E0,6.3335996E0,4.519754E0,1.9293344E0,2.1779926E0,2.6905406E0,4.3324285E0,1.3868835E0,3.5816767E0,1.70245E0,1.1111196E0,1.7552922E0,2.4217296E0,3.9118702E0,1.9375694E0,2.5821846E0,1.9090048E0,2.4234235E0],"tree_param":{"num_deleted":"0","num_feature":"9","num_nodes":"53","size_leaf_vector":"1"}},{"base_weights":[3.1038182E-2,3.8535264E-1,-2.5758687E-1,1.0596503E0,2.565392E-1,-6.54686E-1,1.8525432E-1,1.3433667E-2,6.232015E-2,1.17623955E-1,5.4487795E-2,-3.1025282E-1,-8.977291E-1,6.5424585E-1,-3.0655992E-1,3.9459127E-1,-5.843231E-1,6.456916E-2,-4.1480817E-2,-1.6140362E-2,-4.803239E-2,6.2780984E-2,4.0821377E-2,4.2433962E-1,-7.8275204E-1,5.527265E-1,-3.547447E-2,-4.386897E-2,-1.846912E-1,3.8554022E-1,-3.5172552E-2,5.363067E-2,-4.2210888E-2,5.4168947E-2,-3.3635523E-2,-4.489397E-2,-5.1942677E-3,5.8824927E-2,1.6075276E-2,2.727629E-2,-3.672674E-2,-3.1242851E-2,4.2357475E-2],"categories":[],"categories_nodes":[],"categories_segments":[],"categories_sizes":[],"default_left":[0,0,0,0,0,0,0,0,0,0,0,0,0,0,0,0,0,0,0,0,0,0,0,0,0,0,0,0,0,0,0,0,0,0,0,0,0,0,0,0,0,0,0],"id":23,"left_children":[1,3,5,7,9,11,13,-1,-1,15,-1,17,19,21,23,25,27,29,-1,-1,-1,-1,31,33,35,37,-1,-1,39,41,-1,-1,-1,-1,-1,-1,-1,-1,-1,-1,-1,-1,-1],"loss_changes":[7.303252E0,2.509757E0,7.053463E0,3.76688E-1,3.136724E0,1.479785E0,4.679073E0,0E0,0E0,5.1488395E0,0E0,2.042638E0,1.1625385E-1,3.7328324E0,3.8678029E0,3.6635213E0,7.234156E-1,1.9628925E0,0E0,0E0,0E0,0E0,6.4865265E0,4.0950418E0,4.1493773E-1,2.066671E0,0E0,0E0,2.1935527E0,3.087964E0,0E0,0E0,0E0,0E0,0E0,0E0,0E0,0E0,0E0,0E0,0E0,0E0,0E0],"parents":[2147483647,0,0,1,1,2,2,3,3,4,4,5,5,6,6,9,9,11,11,12,12,13,13,14,14,15,15,16,16,17,17,22,22,23,23,24,24,25,25,28,28,29,29],"right_children":[2,4,6,8,10,12,14,-1,-1,16,-1,18,20,22,24,26,28,30,-1,-1,-1,-1,32,34,36,38,-1,-1,40,42,-1,-1,-1,-1,-1,-1,-1,-1,-1,-1,-1,-1,-1],"split_conditions":[9.008991E4,8.8835375E4,1.0452279E5,8.870929E4,9.593893E4,4.421024E1,1.0269472E5,1.3433667E-2,6.232015E-2,8.7291E4,5.4487795E-2,9.457346E4,9.084272E4,1.0509148E5,1.0311265E5,8.883407E4,5.079471E1,2.2328105E3,-4.1480817E-2,-1.6140362E-2,-4.803239E-2,6.2780984E-2,4.3611794E1,7.73043E2,1.3634371E3,4.2627728E1,-3.547447E-2,-4.386897E-2,8.774999E4,9.3158586E4,-3.5172552E-2,5.363067E-2,-4.2210888E-2,5.4168947E-2,-3.3635523E-2,-4.489397E-2,-5.1942677E-3,5.8824927E-2,1.6075276E-2,2.727629E-2,-3.672674E-2,-3.1242851E-2,4.2357475E-2],"split_indices":[2,7,7,7,7,5,6,0,0,1,0,3,3,7,0,6,5,4,0,0,0,0,5,8,4,5,0,0,1,6,0,0,0,0,0,0,0,0,0,0,0,0,0],"split_type":[0,0,0,0,0,0,0,0,0,0,0,0,0,0,0,0,0,0,0,0,0,0,0,0,0,0,0,0,0,0,0,0,0,0,0,0,0,0,0,0,0,0,0],"sum_hessian":[6.9445015E1,3.1024448E1,3.8420567E1,3.8170671E0,2.720738E1,2.0004236E1,1.841633E1,1.1948841E0,2.6221828E0,2.4297613E1,2.9097688E0,9.217714E0,1.0786523E1,9.257835E0,9.158495E0,1.7736988E1,6.5606236E0,5.8624735E0,3.3552406E0,1.6687555E0,9.117767E0,4.1461926E0,5.111643E0,3.6559408E0,5.502554E0,1.5951645E1,1.7853434E0,3.095313E0,3.4653106E0,4.4857826E0,1.3766909E0,2.2622907E0,2.849352E0,2.291695E0,1.3642458E0,4.42886E0,1.0736942E0,3.2083044E0,1.27433405E1,1.4918797E0,1.9734309E0,1.2958034E0,3.189979E0],"tree_param":{"num_deleted":"0","num_feature":"9","num_nodes":"43","size_leaf_vector":"1"}},{"base_weights":[3.0071106E-2,3.7824896E-1,-2.4866173E-1,4.9907616E-1,-2.579261E-1,-6.2639046E-1,1.8114623E-1,6.721336E-1,-2.1513963E-1,5.3773094E-2,-4.3931358E-2,-2.8722352E-1,-8.8910997E-1,6.377035E-1,-3.001434E-1,5.8889527E-2,5.4205036E-1,2.58948E-2,-4.8729184E-1,5.5481825E-2,-4.1018594E-2,-1.6081912E-2,-4.793665E-2,6.0983457E-2,4.0850934E-2,4.094151E-1,-7.7143025E-1,-3.4790214E-2,6.9948655E-1,-4.4108253E-2,2.3787817E-2,-2.8778782E-1,3.360622E-2,5.325185E-2,-4.0627714E-2,5.2125502E-2,-3.314149E-2,-4.4409245E-2,-5.070581E-3,-2.0837678E-2,4.130773E-2,-3.818642E-2,8.29197E-3],"categories":[],"categories_nodes":[],"categories_segments":[],"categories_sizes":[],"default_left":[0,0,0,0,0,0,0,0,0,0,0,0,0,0,0,0,0,0,0,0,0,0,0,0,0,0,0,0,0,0,0,0,0,0,0,0,0,0,0,0,0,0,0],"id":24,"left_children":[1,3,5,7,9,11,13,15,17,-1,-1,19,21,23,25,-1,27,-1,29,31,-1,-1,-1,-1,33,35,37,-1,39,-1,-1,41,-1,-1,-1,-1,-1,-1,-1,-1,-1,-1,-1],"loss_changes":[6.82805E0,2.5306258E0,6.467951E0,3.4324527E0,5.6183906E0,1.6208963E0,4.3848023E0,7.859783E-1,1.4385428E0,0E0,0E0,1.9947498E0,1.4157772E-1,3.463098E0,3.6499348E0,0E0,4.204394E0,0E0,2.2645311E0,1.7663082E0,0E0,0E0,0E0,0E0,6.1337767E0,3.8357E0,4.057138E-1,0E0,2.8077307E0,0E0,0E0,1.3084042E0,0E0,0E0,0E0,0E0,0E0,0E0,0E0,0E0,0E0,0E0,0E0],"parents":[2147483647,0,0,1,1,2,2,3,3,4,4,5,5,6,6,7,7,8,8,11,11,12,12,13,13,14,14,16,16,18,18,19,19,24,24,25,25,26,26,28,28,31,31],"right_children":[2,4,6,8,10,12,14,16,18,-1,-1,20,22,24,26,-1,28,-1,30,32,-1,-1,-1,-1,34,36,38,-1,40,-1,-1,42,-1,-1,-1,-1,-1,-1,-1,-1,-1,-1,-1],"split_conditions":[8.983534E4,1.00833105E3,1.0452279E5,5.6641537E1,8.364345E4,4.421024E1,1.0269472E5,8.8835375E4,5.556303E2,5.3773094E-2,-4.3931358E-2,9.457346E4,8.93394E4,1.0509148E5,1.0311265E5,5.8889527E-2,6.5397156E2,2.58948E-2,8.908906E4,9.558898E4,-4.1018594E-2,-1.6081912E-2,-4.793665E-2,6.0983457E-2,1.0153901E5,7.73043E2,1.3634371E3,-3.4790214E-2,8.903788E4,-4.4108253E-2,2.3787817E-2,8.7584784E2,3.360622E-2,5.325185E-2,-4.0627714E-2,5.2125502E-2,-3.314149E-2,-4.4409245E-2,-5.070581E-3,-2.0837678E-2,4.130773E-2,-3.818642E-2,8.29197E-3],"split_indices":[2,8,7,5,3,5,6,7,4,0,0,3,7,7,0,0,8,0,0,6,0,0,0,0,3,8,4,0,7,0,0,8,0,0,0,0,0,0,0,0,0,0,0],"split_type":[0,0,0,0,0,0,0,0,0,0,0,0,0,0,0,0,0,0,0,0,0,0,0,0,0,0,0,0,0,0,0,0,0,0,0,0,0,0,0,0,0,0,0],"sum_hessian":[6.838785E1,3.0247406E1,3.8140438E1,2.5600643E1,4.6467633E0,2.0056652E1,1.8083788E1,2.0654816E1,4.9458275E0,1.2432852E0,3.4034781E0,9.668296E0,1.0388355E1,9.113563E0,8.970226E0,2.5783167E0,1.8076498E1,1.0945954E0,3.851232E0,6.430643E0,3.237653E0,1.7493951E0,8.638961E0,4.085987E0,5.027575E0,3.6325004E0,5.337725E0,1.6537964E0,1.64227E1,2.790887E0,1.0603449E0,4.4736E0,1.9570434E0,2.1724253E0,2.8551497E0,2.3013978E0,1.3311027E0,4.2683315E0,1.0693939E0,1.4402878E0,1.4982414E1,1.8495107E0,2.6240892E0],"tree_param":{"num_deleted":"0","num_feature":"9","num_nodes":"43","size_leaf_vector":"1"}},{"base_weights":[2.8736757E-2,3.6397478E-1,-2.4345553E-1,4.0373344E-2,6.067237E-1,-6.1535645E-1,1.7734408E-1,4.3860933E-1,-6.153796E-1,1.3718444E-1,8.7326235E-1,-2.8015244E-1,-8.80264E-1,6.230723E-1,-2.940328E-1,8.245695E-1,-5.598836E-1,-2.2319253E-3,-4.222178E-2,7.635721E-1,-4.7868845E-1,9.813816E-3,9.840763E-1,1.1172109E-1,-7.2780335E-1,-1.4856897E-2,-4.7381397E-2,5.928811E-2,4.1275565E-2,3.9503637E-1,-7.6022595E-1,-7.2023463E-3,6.2635355E-2,-3.3747848E-2,-8.867684E-3,5.235959E-2,1.4063095E-2,1.8572528E-2,-4.2195786E-2,1.0877637E0,4.0699975E-3,-2.657009E-1,4.988626E-2,-4.264862E-2,-5.978416E-3,5.0524365E-2,-4.141065E-2,-3.3086475E-2,5.0911017E-2,-4.3929856E-2,-4.9498337E-3,2.7380574E-2,-2.4767958E-2,6.482457E-2,9.406897E-3,-3.9515086E-2,9.466617E-3],"categories":[],"categories_nodes":[],"categories_segments":[],"categories_sizes":[],"default_left":[0,0,0,0,0,0,0,0,0,0,0,0,0,0,0,0,0,0,0,0,0,0,0,0,0,0,0,0,0,0,0,0,0,0,0,0,0,0,0,0,0,0,0,0,0,0,0,0,0,0,0,0,0,0,0,0,0],"id":25,"left_children":[1,3,5,7,9,11,13,15,17,19,21,23,25,27,29,31,33,-1,-1,35,37,-1,39,41,43,-1,-1,-1,45,47,49,51,-1,-1,-1,-1,-1,-1,-1,53,-1,55,-1,-1,-1,-1,-1,-1,-1,-1,-1,-1,-1,-1,-1,-1,-1],"loss_changes":[6.3196006E0,2.4106607E0,6.100666E0,4.019531E0,2.088027E0,1.5779591E0,4.12022E0,4.129361E0,7.259457E-1,3.2875414E0,6.370859E-1,1.9297506E0,1.5092754E-1,3.208975E0,3.4441204E0,2.5973697E0,2.3302674E-2,0E0,0E0,2.718544E-1,1.690183E0,0E0,7.782593E-1,2.43383E0,2.8259873E-1,0E0,0E0,0E0,5.8332686E0,3.7079542E0,3.9667058E-1,1.20949E0,0E0,0E0,0E0,0E0,0E0,0E0,0E0,1.3007383E0,0E0,1.4238174E0,0E0,0E0,0E0,0E0,0E0,0E0,0E0,0E0,0E0,0E0,0E0,0E0,0E0,0E0,0E0],"parents":[2147483647,0,0,1,1,2,2,3,3,4,4,5,5,6,6,7,7,8,8,9,9,10,10,11,11,12,12,13,13,14,14,15,15,16,16,19,19,20,20,22,22,23,23,24,24,28,28,29,29,30,30,31,31,39,39,41,41],"right_children":[2,4,6,8,10,12,14,16,18,20,22,24,26,28,30,32,34,-1,-1,36,38,-1,40,42,44,-1,-1,-1,46,48,50,52,-1,-1,-1,-1,-1,-1,-1,54,-1,56,-1,-1,-1,-1,-1,-1,-1,-1,-1,-1,-1,-1,-1,-1,-1],"split_conditions":[8.983534E4,8.723531E4,1.0452279E5,8.645493E4,8.674155E4,4.421024E1,1.0269472E5,9.147209E4,5.2032696E1,8.4756E4,8.7287586E4,9.422447E4,9.084272E4,1.0509148E5,1.0311265E5,8.552192E4,7.1363074E2,-2.2319253E-3,-4.222178E-2,8.364345E4,8.7897805E4,9.813816E-3,9.920689E2,9.558898E4,1.0855371E3,-1.4856897E-2,-4.7381397E-2,5.928811E-2,4.3611794E1,1.0363438E5,1.3634371E3,7.030738E2,6.2635355E-2,-3.3747848E-2,-8.867684E-3,5.235959E-2,1.4063095E-2,1.8572528E-2,-4.2195786E-2,1.7314012E3,4.0699975E-3,3.5431458E1,4.988626E-2,-4.264862E-2,-5.978416E-3,5.0524365E-2,-4.141065E-2,-3.3086475E-2,5.0911017E-2,-4.3929856E-2,-4.9498337E-3,2.7380574E-2,-2.4767958E-2,6.482457E-2,9.406897E-3,-3.9515086E-2,9.466617E-3],"split_indices":[2,6,7,3,3,5,6,7,5,2,6,3,3,7,0,6,4,0,0,3,6,0,8,6,8,0,0,0,5,6,4,8,0,0,0,0,0,0,0,4,0,5,0,0,0,0,0,0,0,0,0,0,0,0,0,0,0],"split_type":[0,0,0,0,0,0,0,0,0,0,0,0,0,0,0,0,0,0,0,0,0,0,0,0,0,0,0,0,0,0,0,0,0,0,0,0,0,0,0,0,0,0,0,0,0,0,0,0,0,0,0,0,0,0,0,0,0],"sum_hessian":[6.7285416E1,2.9999802E1,3.7285614E1,1.3358414E1,1.6641386E1,1.9547375E1,1.773824E1,8.517132E0,4.841282E0,6.574434E0,1.0066954E1,9.53707E0,1.0010304E1,8.951755E0,8.786485E0,6.2683372E0,2.2487946E0,1.7287124E0,3.1125696E0,3.1404977E0,3.4339359E0,1.805851E0,8.261103E0,5.485496E0,4.051574E0,1.5970052E0,8.413299E0,4.0228834E0,4.928871E0,3.6072807E0,5.1792035E0,2.4641817E0,3.8041558E0,1.141078E0,1.1077164E0,1.2400775E0,1.9004202E0,1.0268047E0,2.4071314E0,7.226031E0,1.0350715E0,4.3377886E0,1.1477076E0,3.0263972E0,1.0251771E0,2.254091E0,2.67478E0,1.3151904E0,2.2920904E0,4.1139965E0,1.0652074E0,1.096342E0,1.3678398E0,5.507139E0,1.7188915E0,1.6726344E0,2.6651542E0],"tree_param":{"num_deleted":"0","num_feature":"9","num_nodes":"57","size_leaf_vector":"1"}},{"base_weights":[2.8319178E-2,3.474934E-1,-2.4276546E-1,4.5826003E-1,-2.552886E-1,-6.229946E-1,1.732999E-1,6.1502224E-1,-2.1374713E-1,5.102239E-2,-4.323499E-2,-2.9145905E-1,-8.7163633E-1,6.4086026E-1,-2.5694057E-1,5.6421347E-2,4.907162E-1,2.4119062E-2,-4.7851792E-1,1.20993294E-1,-7.1446395E-1,-1.4820561E-2,-4.727502E-2,5.7950504E-2,9.9984415E-2,2.359109E-1,-4.2979036E-2,-3.4217507E-2,6.341119E-1,-4.3282706E-2,2.2072876E-2,-3.2346614E-2,5.131214E-1,-4.1900765E-2,-5.839975E-3,5.0293416E-2,-3.8615774E-2,-2.7511856E-1,6.1736215E-2,-2.0839803E-2,3.7527952E-2,5.8332898E-2,-1.8788276E-2,2.6587388E-2,-3.143499E-2],"categories":[],"categories_nodes":[],"categories_segments":[],"categories_sizes":[],"default_left":[0,0,0,0,0,0,0,0,0,0,0,0,0,0,0,0,0,0,0,0,0,0,0,0,0,0,0,0,0,0,0,0,0,0,0,0,0,0,0,0,0,0,0,0,0],"id":26,"left_children":[1,3,5,7,9,11,13,15,17,-1,-1,19,21,23,25,-1,27,-1,29,31,33,-1,-1,-1,35,37,-1,-1,39,-1,-1,-1,41,-1,-1,-1,-1,43,-1,-1,-1,-1,-1,-1,-1],"loss_changes":[5.897137E0,2.2045217E0,5.9481263E0,2.9515276E0,5.154975E0,1.353941E0,3.8680456E0,8.479996E-1,1.3008851E0,0E0,0E0,1.8070765E0,1.720066E-1,2.436808E0,3.2624106E0,0E0,3.7116523E0,0E0,2.0588994E0,2.0930858E0,2.7233434E-1,0E0,0E0,0E0,5.1631947E0,3.6327024E0,0E0,0E0,2.4979258E0,0E0,0E0,0E0,3.0114188E0,0E0,0E0,0E0,0E0,1.7852201E0,0E0,0E0,0E0,0E0,0E0,0E0,0E0],"parents":[2147483647,0,0,1,1,2,2,3,3,4,4,5,5,6,6,7,7,8,8,11,11,12,12,13,13,14,14,16,16,18,18,19,19,20,20,24,24,25,25,28,28,32,32,37,37],"right_children":[2,4,6,8,10,12,14,16,18,-1,-1,20,22,24,26,-1,28,-1,30,32,34,-1,-1,-1,36,38,-1,-1,40,-1,-1,-1,42,-1,-1,-1,-1,44,-1,-1,-1,-1,-1,-1,-1],"split_conditions":[9.008991E4,1.00833105E3,1.0452279E5,5.6641537E1,8.364345E4,4.421024E1,1.0260255E5,8.8835375E4,5.556303E2,5.102239E-2,-4.323499E-2,9.426145E4,8.93394E4,1.0509148E5,1.0490617E5,5.6421347E-2,6.5397156E2,2.4119062E-2,8.908906E4,9.3158586E4,1.0855371E3,-1.4820561E-2,-4.727502E-2,5.7950504E-2,1.0153901E5,1.0429042E5,-4.2979036E-2,-3.4217507E-2,8.903788E4,-4.3282706E-2,2.2072876E-2,-3.2346614E-2,9.200408E2,-4.1900765E-2,-5.839975E-3,5.0293416E-2,-3.8615774E-2,1.0143839E5,6.1736215E-2,-2.0839803E-2,3.7527952E-2,5.8332898E-2,-1.8788276E-2,2.6587388E-2,-3.143499E-2],"split_indices":[2,8,7,5,3,5,6,7,4,0,0,0,7,7,7,0,8,0,0,6,8,0,0,0,3,6,0,0,7,0,0,0,8,0,0,0,0,2,0,0,0,0,0,0,0],"split_type":[0,0,0,0,0,0,0,0,0,0,0,0,0,0,0,0,0,0,0,0,0,0,0,0,0,0,0,0,0,0,0,0,0,0,0,0,0,0,0,0,0,0,0,0,0],"sum_hessian":[6.61817E1,3.026542E1,3.591628E1,2.5769756E1,4.495665E0,1.8506458E1,1.7409822E1,2.096415E1,4.805606E0,1.2352729E0,3.2603922E0,8.862082E0,9.644377E0,8.108469E0,9.301353E0,2.5118747E0,1.8452274E1,1.0976944E0,3.7079115E0,4.848501E0,4.0135803E0,1.667951E0,7.9764256E0,3.5575542E0,4.5509152E0,5.4515233E0,3.84983E0,1.5965741E0,1.6855701E1,2.6512723E0,1.0566392E0,1.41927E0,3.4292312E0,2.9927566E0,1.0208235E0,2.1573668E0,2.3935485E0,4.0856895E0,1.3658335E0,1.4241166E0,1.5431584E1,1.7961524E0,1.6330787E0,1.0913517E0,2.9943378E0],"tree_param":{"num_deleted":"0","num_feature":"9","num_nodes":"45","size_leaf_vector":"1"}},{"base_weights":[2.7521096E-2,3.3997786E-1,-2.3282374E-1,2.3528768E-1,5.5963784E-2,-5.9402007E-1,1.724519E-1,3.7969667E-1,-4.0500753E-2,-2.6774386E-1,-8.627767E-1,5.9864855E-1,-2.815715E-1,6.924445E-2,8.3572257E-1,1.08747E-1,-7.105904E-1,-1.3619495E-2,-4.673813E-2,5.669683E-2,4.0831964E-2,3.7387183E-1,-7.3880816E-1,3.721223E-1,-6.599154E-1,6.1863758E-2,3.326165E-1,-2.5372967E-1,4.7006585E-2,-4.192264E-2,-5.704744E-3,4.773931E-2,-4.063779E-2,4.814404E-2,-3.2367207E-2,-4.305682E-2,-4.3043043E-3,3.244031E-2,-2.8256062E-2,1.420996E-3,-4.1794345E-2,5.8010478E-2,-2.6872192E-2,-3.7467055E-2,1.0654691E-2],"categories":[],"categories_nodes":[],"categories_segments":[],"categories_sizes":[],"default_left":[0,0,0,0,0,0,0,0,0,0,0,0,0,0,0,0,0,0,0,0,0,0,0,0,0,0,0,0,0,0,0,0,0,0,0,0,0,0,0,0,0,0,0,0,0],"id":27,"left_children":[1,3,5,7,-1,9,11,13,-1,15,17,19,21,23,25,27,29,-1,-1,-1,31,33,35,37,39,-1,41,43,-1,-1,-1,-1,-1,-1,-1,-1,-1,-1,-1,-1,-1,-1,-1,-1,-1],"loss_changes":[5.454904E0,2.220307E0,5.466234E0,4.5498166E0,0E0,1.4876614E0,3.659814E0,3.5343118E0,0E0,1.7949775E0,1.8300295E-1,2.8280244E0,3.098154E0,3.8202767E0,1.6464176E0,2.17798E0,2.7552128E-1,0E0,0E0,0E0,5.262813E0,3.3501618E0,3.9558148E-1,3.4980793E0,6.4282393E-1,0E0,4.8641505E0,1.3787711E0,0E0,0E0,0E0,0E0,0E0,0E0,0E0,0E0,0E0,0E0,0E0,0E0,0E0,0E0,0E0,0E0,0E0],"parents":[2147483647,0,0,1,1,2,2,3,3,5,5,6,6,7,7,9,9,10,10,11,11,12,12,13,13,14,14,15,15,16,16,20,20,21,21,22,22,23,23,24,24,26,26,27,27],"right_children":[2,4,6,8,-1,10,12,14,-1,16,18,20,22,24,26,28,30,-1,-1,-1,32,34,36,38,40,-1,42,44,-1,-1,-1,-1,-1,-1,-1,-1,-1,-1,-1,-1,-1,-1,-1,-1,-1],"split_conditions":[8.983534E4,9.176161E4,1.0452279E5,8.883407E4,5.5963784E-2,4.421024E1,1.0269472E5,8.7287586E4,-4.0500753E-2,9.422447E4,9.084272E4,1.0509148E5,1.0311265E5,8.699502E4,7.559506E2,9.558898E4,1.0855371E3,-1.3619495E-2,-4.673813E-2,5.669683E-2,4.3611794E1,7.73043E2,1.3634371E3,9.147209E4,8.892114E4,6.1863758E-2,3.6148495E1,8.7584784E2,4.7006585E-2,-4.192264E-2,-5.704744E-3,4.773931E-2,-4.063779E-2,4.814404E-2,-3.2367207E-2,-4.305682E-2,-4.3043043E-3,3.244031E-2,-2.8256062E-2,1.420996E-3,-4.1794345E-2,5.8010478E-2,-2.6872192E-2,-3.7467055E-2,1.0654691E-2],"split_indices":[2,6,7,6,0,5,6,6,0,3,3,7,0,3,8,6,8,0,0,0,5,8,4,7,7,0,5,8,0,0,0,0,0,0,0,0,0,0,0,0,0,0,0,0,0],"split_type":[0,0,0,0,0,0,0,0,0,0,0,0,0,0,0,0,0,0,0,0,0,0,0,0,0,0,0,0,0,0,0,0,0,0,0,0,0,0,0,0,0,0,0,0,0],"sum_hessian":[6.508458E1,2.9442657E1,3.5641922E1,2.7103518E1,2.33914E0,1.859958E1,1.704234E1,2.437312E1,2.7303972E0,9.302445E0,9.297135E0,8.626247E0,8.416092E0,1.5186401E1,9.186718E0,5.43568E0,3.866766E0,1.530314E0,7.7668214E0,3.8749664E0,4.751281E0,3.5333705E0,4.8827214E0,1.1075518E1,4.1108837E0,4.2974496E0,4.889269E0,4.269169E0,1.1665108E0,2.8501818E0,1.0165843E0,2.2372522E0,2.5140288E0,2.2771163E0,1.2562541E0,3.843165E0,1.0395567E0,8.788742E0,2.2867756E0,1.0076861E0,3.1031973E0,2.3348758E0,2.554393E0,1.777191E0,2.491978E0],"tree_param":{"num_deleted":"0","num_feature":"9","num_nodes":"45","size_leaf_vector":"1"}},{"base_weights":[2.6614774E-2,3.291235E-1,-2.2790618E-1,2.2658475E-1,5.4581147E-2,-5.8291435E-1,1.684229E-1,3.6625353E-1,-3.998943E-2,-2.6036477E-1,-8.541112E-1,5.8442366E-1,-2.7622166E-1,6.379062E-2,8.1271005E-1,5.4815654E-2,-3.9455082E-2,-1.360057E-2,-4.6620432E-2,5.5239268E-2,4.0308073E-2,3.6089677E-1,-7.278887E-1,3.5405168E-1,-6.484064E-1,6.0061943E-2,3.2451066E-1,-3.294989E-2,3.0631825E-1,4.7637362E-2,-3.8997643E-2,-3.19947E-2,4.6605807E-2,-4.27213E-2,-4.403496E-3,3.0882914E-2,-2.7624195E-2,1.3851253E-3,-4.128725E-2,5.6524068E-2,-2.6100477E-2,5.3433206E-2,-4.390085E-3],"categories":[],"categories_nodes":[],"categories_segments":[],"categories_sizes":[],"default_left":[0,0,0,0,0,0,0,0,0,0,0,0,0,0,0,0,0,0,0,0,0,0,0,0,0,0,0,0,0,0,0,0,0,0,0,0,0,0,0,0,0,0,0],"id":28,"left_children":[1,3,5,7,-1,9,11,13,-1,15,17,19,21,23,25,27,-1,-1,-1,-1,29,31,33,35,37,-1,39,-1,41,-1,-1,-1,-1,-1,-1,-1,-1,-1,-1,-1,-1,-1,-1],"loss_changes":[5.0762014E0,2.1051617E0,5.1445575E0,4.2758293E0,0E0,1.452189E0,3.4396408E0,3.3432372E0,0E0,1.7401308E0,2.0037174E-1,2.6388173E0,2.9232216E0,3.5522597E0,1.5200291E0,1.5150251E0,0E0,0E0,0E0,0E0,4.987289E0,3.1711974E0,3.8959527E-1,3.2246425E0,6.232343E-1,0E0,4.5692606E0,0E0,1.9240693E0,0E0,0E0,0E0,0E0,0E0,0E0,0E0,0E0,0E0,0E0,0E0,0E0,0E0,0E0],"parents":[2147483647,0,0,1,1,2,2,3,3,5,5,6,6,7,7,9,9,10,10,11,11,12,12,13,13,14,14,15,15,20,20,21,21,22,22,23,23,24,24,26,26,28,28],"right_children":[2,4,6,8,-1,10,12,14,-1,16,18,20,22,24,26,28,-1,-1,-1,-1,30,32,34,36,38,-1,40,-1,42,-1,-1,-1,-1,-1,-1,-1,-1,-1,-1,-1,-1,-1,-1],"split_conditions":[8.983534E4,9.176161E4,1.0452279E5,8.883407E4,5.4581147E-2,4.421024E1,1.0269472E5,8.7287586E4,-3.998943E-2,9.457346E4,8.93394E4,1.0509148E5,1.0311265E5,8.699502E4,7.559506E2,9.133218E4,-3.9455082E-2,-1.360057E-2,-4.6620432E-2,5.5239268E-2,1.0153901E5,1.0363438E5,1.0602797E5,9.147209E4,8.892114E4,6.0061943E-2,3.6148495E1,-3.294989E-2,1.0934259E3,4.7637362E-2,-3.8997643E-2,-3.19947E-2,4.6605807E-2,-4.27213E-2,-4.403496E-3,3.0882914E-2,-2.7624195E-2,1.3851253E-3,-4.128725E-2,5.6524068E-2,-2.6100477E-2,5.3433206E-2,-4.390085E-3],"split_indices":[2,6,7,6,0,5,6,6,0,3,7,7,0,3,8,1,0,0,0,0,3,6,0,7,7,0,5,0,4,0,0,0,0,0,0,0,0,0,0,0,0,0,0],"split_type":[0,0,0,0,0,0,0,0,0,0,0,0,0,0,0,0,0,0,0,0,0,0,0,0,0,0,0,0,0,0,0,0,0,0,0,0,0,0,0,0,0,0,0],"sum_hessian":[6.3954926E1,2.9088696E1,3.486623E1,2.6784018E1,2.3046777E0,1.8143538E1,1.6722692E1,2.4141943E1,2.6420755E0,9.182425E0,8.961114E0,8.477215E0,8.245479E0,1.507315E1,9.068793E0,6.314609E0,2.8678155E0,1.5928913E0,7.368222E0,3.8064835E0,4.670731E0,3.5038872E0,4.7415915E0,1.1065996E1,4.0071535E0,4.2365923E0,4.8322005E0,1.2230662E0,5.0915427E0,2.1346636E0,2.5360675E0,1.2295172E0,2.27437E0,3.6786451E0,1.0629466E0,8.819951E0,2.2460449E0,1.0079815E0,2.999172E0,2.3035493E0,2.5286512E0,1.1519015E0,3.9396412E0],"tree_param":{"num_deleted":"0","num_feature":"9","num_nodes":"43","size_leaf_vector":"1"}},{"base_weights":[2.5756227E-2,3.1403753E-1,-2.2770335E-1,1.8063877E-2,5.322207E-1,-5.9101903E-1,1.6467725E-1,3.858337E-1,-5.966372E-1,8.722542E-1,2.1357425E-1,-2.7134523E-1,-8.452121E-1,3.5351816E-1,-3.737358E-2,7.2442734E-1,-5.2154267E-1,-4.112709E-2,-2.06127E-3,5.7777613E-2,2.4957399E-1,5.456739E-1,-4.1121446E-2,5.317534E-2,-3.9006107E-2,-1.24281645E-2,-4.60992E-2,7.611336E-1,-1.7442669E-1,-6.3982606E-2,5.7801105E-2,-3.2323644E-2,-7.017534E-3,-4.6876157E-3,2.7577678E-2,-2.7099667E-2,7.671884E-1,3.5541615E-1,-3.414762E-2,9.79372E-1,-2.4514171E-5,4.6399288E-2,-6.8920875E-1,2.4132218E-2,-2.61729E-2,5.5124987E-2,2.0186972E-2,-2.9236082E-2,3.721684E-2,2.4928322E-2,6.1202373E-2,-8.38828E-3,-4.112313E-2],"categories":[],"categories_nodes":[],"categories_segments":[],"categories_sizes":[],"default_left":[0,0,0,0,0,0,0,0,0,0,0,0,0,0,0,0,0,0,0,0,0,0,0,0,0,0,0,0,0,0,0,0,0,0,0,0,0,0,0,0,0,0,0,0,0,0,0,0,0,0,0,0,0],"id":29,"left_children":[1,3,5,7,9,11,13,15,17,19,21,23,25,27,-1,29,31,-1,-1,-1,33,35,-1,37,-1,-1,-1,39,41,43,-1,-1,-1,-1,-1,-1,45,47,-1,49,-1,-1,51,-1,-1,-1,-1,-1,-1,-1,-1,-1,-1],"loss_changes":[4.736271E0,1.946368E0,5.02304E0,3.3699498E0,1.6991048E0,1.2461977E0,3.2603428E0,3.2341123E0,6.6767013E-1,1.139368E0,3.9950335E0,1.6126766E0,2.125082E-1,3.3799624E0,0E0,2.5201972E0,5.727023E-2,0E0,0E0,0E0,4.4634396E-1,2.4411812E0,0E0,1.7437099E0,0E0,0E0,0E0,1.4468021E0,4.832195E0,1.129393E0,0E0,0E0,0E0,0E0,0E0,0E0,4.5645666E-1,2.4244437E0,0E0,1.8545103E-1,0E0,0E0,2.518251E-1,0E0,0E0,0E0,0E0,0E0,0E0,0E0,0E0,0E0,0E0],"parents":[2147483647,0,0,1,1,2,2,3,3,4,4,5,5,6,6,7,7,8,8,9,9,10,10,11,11,12,12,13,13,15,15,16,16,20,20,21,21,23,23,27,27,28,28,29,29,36,36,37,37,39,39,42,42],"right_children":[2,4,6,8,10,12,14,16,18,20,22,24,26,28,-1,30,32,-1,-1,-1,34,36,-1,38,-1,-1,-1,40,42,44,-1,-1,-1,-1,-1,-1,46,48,-1,50,-1,-1,52,-1,-1,-1,-1,-1,-1,-1,-1,-1,-1],"split_conditions":[9.008991E4,8.723531E4,1.0452279E5,8.645493E4,8.924121E4,4.421024E1,1.0489999E5,9.147209E4,7.4806195E2,8.732501E4,3.700287E1,9.457346E4,9.084272E4,1.0502463E5,-3.737358E-2,8.552192E4,7.1363074E2,-4.112709E-2,-2.06127E-3,5.7777613E-2,8.793505E4,6.7333514E2,-4.1121446E-2,2.2328105E3,-3.9006107E-2,-1.24281645E-2,-4.60992E-2,7.030738E2,1.01538E5,7.030738E2,5.7801105E-2,-3.2323644E-2,-7.017534E-3,-4.6876157E-3,2.7577678E-2,-2.7099667E-2,8.883407E4,9.3158586E4,-3.414762E-2,1.0481376E5,-2.4514171E-5,4.6399288E-2,1.01454E5,2.4132218E-2,-2.61729E-2,5.5124987E-2,2.0186972E-2,-2.9236082E-2,3.721684E-2,2.4928322E-2,6.1202373E-2,-8.38828E-3,-4.112313E-2],"split_indices":[2,6,7,3,7,5,3,7,8,0,5,3,3,7,0,6,4,0,0,0,0,8,0,4,0,0,0,8,1,8,0,0,0,0,0,0,6,6,0,7,0,0,2,0,0,0,0,0,0,0,0,0,0],"split_type":[0,0,0,0,0,0,0,0,0,0,0,0,0,0,0,0,0,0,0,0,0,0,0,0,0,0,0,0,0,0,0,0,0,0,0,0,0,0,0,0,0,0,0,0,0,0,0,0,0,0,0,0,0],"sum_hessian":[6.284171E1,2.9289381E1,3.355233E1,1.2888475E1,1.6400906E1,1.7158539E1,1.639379E1,8.296864E0,4.591612E0,7.0937076E0,9.307198E0,8.516121E0,8.642418E0,1.4089329E1,2.3044608E0,6.189015E0,2.1078482E0,2.9221268E0,1.6694853E0,4.2873425E0,2.8063653E0,7.406326E0,1.9008718E0,5.746336E0,2.7697854E0,1.4683691E0,7.1740484E0,7.7014813E0,6.3878474E0,2.4907763E0,3.6982386E0,1.0634073E0,1.044441E0,1.6359563E0,1.170409E0,1.0083625E0,6.3979635E0,4.440378E0,1.3059579E0,5.763957E0,1.9375246E0,1.77786E0,4.6099877E0,1.1144805E0,1.3762958E0,2.2701383E0,4.1278253E0,1.1520587E0,3.2883193E0,2.968431E0,2.795526E0,1.3980786E0,3.2119088E0],"tree_param":{"num_deleted":"0","num_feature":"9","num_nodes":"53","size_leaf_vector":"1"}},{"base_weights":[2.4391957E-2,3.0377072E-1,-2.2320904E-1,4.1206264E-1,-2.3459232E-1,-5.8200747E-1,1.612933E-1,5.5488044E-1,-2.5163004E-1,2.1290628E-2,-4.865598E-1,-2.6787835E-1,-8.364862E-1,5.691581E-1,-2.7242824E-1,5.2355558E-2,4.3681967E-1,4.577951E-2,-4.1717574E-2,-4.2653993E-2,1.9340433E-2,4.6417534E-2,-3.8559794E-2,-1.2422889E-2,-4.5969646E-2,5.3019192E-2,4.5492887E-2,3.3576855E-1,-7.122248E-1,-3.236238E-2,5.6360143E-1,3.3749965E-1,-3.3625063E-2,4.4680182E-2,-3.9467003E-2,4.4835106E-2,-3.1867158E-2,-4.201614E-2,-3.3301231E-3,-2.1222714E-2,3.376497E-2,-2.883454E-2,3.5368606E-2],"categories":[],"categories_nodes":[],"categories_segments":[],"categories_sizes":[],"default_left":[0,0,0,0,0,0,0,0,0,0,0,0,0,0,0,0,0,0,0,0,0,0,0,0,0,0,0,0,0,0,0,0,0,0,0,0,0,0,0,0,0,0,0],"id":30,"left_children":[1,3,5,7,9,11,13,15,17,-1,19,21,23,25,27,-1,29,-1,-1,-1,-1,31,-1,-1,-1,-1,33,35,37,-1,39,41,-1,-1,-1,-1,-1,-1,-1,-1,-1,-1,-1],"loss_changes":[4.414702E0,1.8426871E0,4.7694263E0,2.537373E0,1.1477752E0,1.1947198E0,3.1875546E0,7.7045393E-1,4.278652E0,0E0,1.7890996E0,1.5250626E0,2.2661924E-1,